{"learner":{"attributes":{"scikit_learn":"{\"_estimator_type\": \"regressor\"}"},"feature_names":["WindSpeed"],"feature_types":["float"],"gradient_booster":{"model":{"gbtree_model_param":{"num_parallel_tree":"1","num_trees":"200"},"iteration_indptr":[0,1,2,3,4,5,6,7,8,9,10,11,12,13,14,15,16,17,18,19,20,21,22,23,24,25,26,27,28,29,30,31,32,33,34,35,36,37,38,39,40,41,42,43,44,45,46,47,48,49,50,51,52,53,54,55,56,57,58,59,60,61,62,63,64,65,66,67,68,69,70,71,72,73,74,75,76,77,78,79,80,81,82,83,84,85,86,87,88,89,90,91,92,93,94,95,96,97,98,99,100,101,102,103,104,105,106,107,108,109,110,111,112,113,114,115,116,117,118,119,120,121,122,123,124,125,126,127,128,129,130,131,132,133,134,135,136,137,138,139,140,141,142,143,144,145,146,147,148,149,150,151,152,153,154,155,156,157,158,159,160,161,162,163,164,165,166,167,168,169,170,171,172,173,174,175,176,177,178,179,180,181,182,183,184,185,186,187,188,189,190,191,192,193,194,195,196,197,198,199,200],"tree_info":[0,0,0,0,0,0,0,0,0,0,0,0,0,0,0,0,0,0,0,0,0,0,0,0,0,0,0,0,0,0,0,0,0,0,0,0,0,0,0,0,0,0,0,0,0,0,0,0,0,0,0,0,0,0,0,0,0,0,0,0,0,0,0,0,0,0,0,0,0,0,0,0,0,0,0,0,0,0,0,0,0,0,0,0,0,0,0,0,0,0,0,0,0,0,0,0,0,0,0,0,0,0,0,0,0,0,0,0,0,0,0,0,0,0,0,0,0,0,0,0,0,0,0,0,0,0,0,0,0,0,0,0,0,0,0,0,0,0,0,0,0,0,0,0,0,0,0,0,0,0,0,0,0,0,0,0,0,0,0,0,0,0,0,0,0,0,0,0,0,0,0,0,0,0,0,0,0,0,0,0,0,0,0,0,0,0,0,0,0,0,0,0,0,0,0,0,0,0,0,0],"trees":[{"base_weights":[-1.6226537E-5,-3.8659628E2,7.2470953E2,-5.546103E2,-1.2229251E2,3.941994E2,9.1935004E2,-6.4305237E2,-4.4691553E2,-2.326078E2,2.2798042E1,2.8176495E2,5.290739E2,7.7287054E2,9.591809E2,-6.850909E2,-5.908487E2,-4.9133292E2,-3.8922192E2,-2.8877148E2,-1.7287376E2,-4.1653088E1,9.869732E1,2.1605121E2,3.343772E2,4.6121313E2,5.883359E2,7.30087E2,2.4977397E2,2.7063202E2,9.681189E2,-7.0502386E2,-6.607089E2,-6.1458673E2,-5.6878217E2,-5.157044E2,-4.627317E2,-4.1088153E2,-3.6256967E2,-3.1325485E2,-2.6146838E2,-2.0334471E2,-1.417512E2,-7.544158E1,-1.2530825E1,6.2672165E1,1.2891418E2,2.0340326E2,7.619176E1,2.9472623E2,3.6067154E2,1.2902097E2,1.4521997E2,1.6319278E2,6.148799E2,2.0894821E2,2.2639513E2,2.8344635E2,2.91472E2,-2.1471037E2,-2.0782404E2,-2.014527E2,-1.9488902E2,-1.8724791E2,-1.8023259E2,-1.7398547E2,-1.6663614E2,-1.5843405E2,-1.4966522E2,-1.423979E2,-1.3515128E2,-1.2736142E2,-1.1980447E2,-1.12944725E2,-1.05389725E2,-9.813246E1,-8.9783424E1,-8.0375046E1,-7.206511E1,-6.4710075E1,-5.657173E1,-4.659049E1,-3.7220078E1,-2.5399656E1,-1.5659274E1,-8.256333E0,3.3791063E0,1.3412972E1,2.1299807E1,3.1469995E1,4.4085648E1,5.769768E1,6.424937E1,8.5117065E1,9.16004E1,1.0475503E2,1.1497268E2,1.786565E2,1.9282942E2],"categories":[],"categories_nodes":[],"categories_segments":[],"categories_sizes":[],"default_left":[0,0,0,0,0,0,0,0,0,0,0,0,0,0,0,0,0,0,0,0,0,0,0,0,0,0,0,0,0,0,0,0,0,0,0,0,0,0,0,0,0,0,0,0,0,0,0,0,0,0,0,0,0,0,0,0,0,0,0,0,0,0,0,0,0,0,0,0,0,0,0,0,0,0,0,0,0,0,0,0,0,0,0,0,0,0,0,0,0,0,0,0,0,0,0,0,0,0,0],"id":0,"left_children":[1,3,5,7,9,11,13,15,17,19,21,23,25,27,29,31,33,35,37,39,41,43,45,47,49,51,53,55,-1,-1,57,59,61,63,65,67,69,71,73,75,77,79,81,83,85,87,89,91,-1,93,95,-1,-1,-1,97,-1,-1,-1,-1,-1,-1,-1,-1,-1,-1,-1,-1,-1,-1,-1,-1,-1,-1,-1,-1,-1,-1,-1,-1,-1,-1,-1,-1,-1,-1,-1,-1,-1,-1,-1,-1,-1,-1,-1,-1,-1,-1,-1,-1],"loss_changes":[2.185382E10,2.25877E9,1.7452493E9,2.9591347E8,3.164381E8,1.5239104E8,9.88928E7,3.706317E7,3.575168E7,3.76288E7,4.178003E7,1.8901664E7,1.81152E7,8.731904E6,5.974016E6,4.127232E6,3.643648E6,5.282688E6,3.376E6,3.786528E6,5.134848E6,4.5441385E6,4.261284E6,1.120072E6,3.069472E6,1.312128E6,2.535104E6,1.238656E6,0E0,0E0,1.536E4,1.84064E5,7.4368E4,1.088E5,2.67904E5,6.27456E5,3.19104E5,3.59808E5,2.98336E5,4.91904E5,3.11392E5,4.61064E5,6.27016E5,4.5397E5,8.856059E5,2.64714E5,9.08096E5,1.778E5,0E0,5.5776E4,3.39888E5,0E0,0E0,0E0,4.3616E5,0E0,0E0,0E0,0E0,0E0,0E0,0E0,0E0,0E0,0E0,0E0,0E0,0E0,0E0,0E0,0E0,0E0,0E0,0E0,0E0,0E0,0E0,0E0,0E0,0E0,0E0,0E0,0E0,0E0,0E0,0E0,0E0,0E0,0E0,0E0,0E0,0E0,0E0,0E0,0E0,0E0,0E0,0E0,0E0],"parents":[2147483647,0,0,1,1,2,2,3,3,4,4,5,5,6,6,7,7,8,8,9,9,10,10,11,11,12,12,13,13,14,14,15,15,16,16,17,17,18,18,19,19,20,20,21,21,22,22,23,23,24,24,25,25,26,26,27,27,30,30,31,31,32,32,33,33,34,34,35,35,36,36,37,37,38,38,39,39,40,40,41,41,42,42,43,43,44,44,45,45,46,46,47,47,49,49,50,50,54,54],"right_children":[2,4,6,8,10,12,14,16,18,20,22,24,26,28,30,32,34,36,38,40,42,44,46,48,50,52,54,56,-1,-1,58,60,62,64,66,68,70,72,74,76,78,80,82,84,86,88,90,92,-1,94,96,-1,-1,-1,98,-1,-1,-1,-1,-1,-1,-1,-1,-1,-1,-1,-1,-1,-1,-1,-1,-1,-1,-1,-1,-1,-1,-1,-1,-1,-1,-1,-1,-1,-1,-1,-1,-1,-1,-1,-1,-1,-1,-1,-1,-1,-1,-1,-1],"split_conditions":[7.122194E0,5.5322895E0,8.245094E0,4.49751E0,6.3632174E0,7.688645E0,8.723364E0,3.894019E0,5.0937614E0,5.9497848E0,6.749275E0,7.3644385E0,7.9392796E0,8.521443E0,8.973869E0,3.5305624E0,4.19525E0,4.82758E0,5.33656E0,5.7512097E0,6.14565E0,6.53571E0,6.915531E0,7.3037643E0,7.4909096E0,7.7939897E0,8.0517E0,8.362123E0,2.4977397E2,2.7063202E2,9.213394E0,3.2884998E0,3.713595E0,4.0720944E0,4.35778E0,4.691735E0,4.95888E0,5.205726E0,5.4235525E0,5.64246E0,5.903184E0,6.052737E0,6.266885E0,6.486408E0,6.663645E0,6.80607E0,7.0018053E0,7.2113147E0,7.619176E1,7.4251E0,7.6210394E0,1.2902097E2,1.4521997E2,1.6319278E2,8.165745E0,2.0894821E2,2.2639513E2,2.8344635E2,2.91472E2,-2.1471037E2,-2.0782404E2,-2.014527E2,-1.9488902E2,-1.8724791E2,-1.8023259E2,-1.7398547E2,-1.6663614E2,-1.5843405E2,-1.4966522E2,-1.423979E2,-1.3515128E2,-1.2736142E2,-1.1980447E2,-1.12944725E2,-1.05389725E2,-9.813246E1,-8.9783424E1,-8.0375046E1,-7.206511E1,-6.4710075E1,-5.657173E1,-4.659049E1,-3.7220078E1,-2.5399656E1,-1.5659274E1,-8.256333E0,3.3791063E0,1.3412972E1,2.1299807E1,3.1469995E1,4.4085648E1,5.769768E1,6.424937E1,8.5117065E1,9.16004E1,1.0475503E2,1.1497268E2,1.786565E2,1.9282942E2],"split_indices":[0,0,0,0,0,0,0,0,0,0,0,0,0,0,0,0,0,0,0,0,0,0,0,0,0,0,0,0,0,0,0,0,0,0,0,0,0,0,0,0,0,0,0,0,0,0,0,0,0,0,0,0,0,0,0,0,0,0,0,0,0,0,0,0,0,0,0,0,0,0,0,0,0,0,0,0,0,0,0,0,0,0,0,0,0,0,0,0,0,0,0,0,0,0,0,0,0,0,0],"split_type":[0,0,0,0,0,0,0,0,0,0,0,0,0,0,0,0,0,0,0,0,0,0,0,0,0,0,0,0,0,0,0,0,0,0,0,0,0,0,0,0,0,0,0,0,0,0,0,0,0,0,0,0,0,0,0,0,0,0,0,0,0,0,0,0,0,0,0,0,0,0,0,0,0,0,0,0,0,0,0,0,0,0,0,0,0,0,0,0,0,0,0,0,0,0,0,0,0,0,0],"sum_hessian":[7.8E4,5.0866E4,2.7134E4,3.1097E4,1.9769E4,1.0058E4,1.7076E4,1.7072E4,1.4025E4,1.123E4,8.539E3,5.487E3,4.571E3,3.655E3,1.3421E4,9.45E3,7.622E3,7.92E3,6.105E3,5.786E3,5.444E3,4.618E3,3.921E3,2.442E3,3.045E3,2.135E3,2.436E3,2.137E3,1.518E3,1.831E3,1.159E4,5.184E3,4.266E3,3.659E3,3.963E3,4.267E3,3.653E3,3.36E3,2.745E3,3.045E3,2.741E3,2.748E3,2.696E3,2.137E3,2.481E3,1.79E3,2.131E3,1.836E3,6.06E2,1.219E3,1.826E3,9.12E2,1.223E3,9.2E2,1.516E3,9.15E2,1.222E3,1.532E3,1.0058E4,2.742E3,2.442E3,2.13E3,2.136E3,2.135E3,1.524E3,2.133E3,1.83E3,2.438E3,1.829E3,1.83E3,1.823E3,1.522E3,1.838E3,1.214E3,1.531E3,1.518E3,1.527E3,2.094E3,6.47E2,1.489E3,1.259E3,1.522E3,1.174E3,1.528E3,6.09E2,1.522E3,9.59E2,5.69E2,1.221E3,9.17E2,1.214E3,9.14E2,9.22E2,6.12E2,6.07E2,1.221E3,6.05E2,9.08E2,6.08E2],"tree_param":{"num_deleted":"0","num_feature":"1","num_nodes":"99","size_leaf_vector":"1"}},{"base_weights":[-1.6195233E-3,-2.7067755E2,5.0740475E2,-3.900131E2,-8.818681E1,2.7046768E2,6.404404E2,-4.540131E2,-3.191009E2,-1.6265193E2,1.9350454E1,1.92545E2,3.5864835E2,5.349345E2,6.7148956E2,-4.8206418E2,-4.2011063E2,-3.5243637E2,-2.7949405E2,-2.0406836E2,-1.18508514E2,-2.5950264E1,6.911625E1,1.4608788E2,2.2516812E2,3.1746912E2,4.0551773E2,4.982688E2,5.77475E2,6.348624E2,2.0350847E2,-4.9581662E2,-4.672224E2,-4.351362E2,-4.0495804E2,-3.6928198E2,-3.327183E2,-2.986969E2,-2.6326007E2,-2.1964445E2,-1.8048691E2,-1.458321E2,-9.890511E1,-4.4407455E1,-1.8076435E0,4.38899E1,9.027538E1,1.3469095E2,1.5446773E2,2.0286862E2,2.4731969E2,3.0033978E2,1.0375732E2,1.142881E2,4.2376904E2,1.4233969E2,1.5470212E2,1.6746542E2,1.7894296E2,1.8538582E2,1.9411563E2,-1.5189561E2,-1.4711461E2,-1.426458E2,-1.382528E2,-1.3249052E2,-1.27711815E2,-1.2382755E2,-1.1909259E2,-1.1374677E2,-1.0778025E2,-1.03012726E2,-9.747983E1,-9.1878105E1,-8.6130226E1,-8.253735E1,-7.634216E1,-7.042947E1,-6.3512196E1,-5.7208073E1,-5.226333E1,-4.5310078E1,-4.11551E1,-3.2686947E1,-2.4110128E1,-1.667099E1,-9.976281E0,-3.6136212E0,2.3664355E0,1.1191015E1,1.6974203E1,2.2934044E1,3.2649708E1,3.91774E1,4.268117E1,4.499543E1,5.025834E1,5.74019E1,6.30923E1,6.849543E1,7.5556656E1,8.727996E1,9.4214966E1,1.22685036E2,1.3133923E2],"categories":[],"categories_nodes":[],"categories_segments":[],"categories_sizes":[],"default_left":[0,0,0,0,0,0,0,0,0,0,0,0,0,0,0,0,0,0,0,0,0,0,0,0,0,0,0,0,0,0,0,0,0,0,0,0,0,0,0,0,0,0,0,0,0,0,0,0,0,0,0,0,0,0,0,0,0,0,0,0,0,0,0,0,0,0,0,0,0,0,0,0,0,0,0,0,0,0,0,0,0,0,0,0,0,0,0,0,0,0,0,0,0,0,0,0,0,0,0,0,0,0,0,0,0],"id":1,"left_children":[1,3,5,7,9,11,13,15,17,19,21,23,25,27,29,31,33,35,37,39,41,43,45,47,49,51,53,55,57,59,-1,61,63,65,67,69,71,73,75,77,79,81,83,85,87,89,91,93,95,97,99,101,-1,-1,103,-1,-1,-1,-1,-1,-1,-1,-1,-1,-1,-1,-1,-1,-1,-1,-1,-1,-1,-1,-1,-1,-1,-1,-1,-1,-1,-1,-1,-1,-1,-1,-1,-1,-1,-1,-1,-1,-1,-1,-1,-1,-1,-1,-1,-1,-1,-1,-1,-1,-1],"loss_changes":[1.0713004E10,1.1077286E9,8.551516E8,1.3943296E8,1.6106352E8,6.698771E7,5.656576E7,1.5168512E7,1.9168768E7,2.1702912E7,1.8555722E7,7.822336E6,8.705088E6,5.882752E6,2.947584E6,1.572096E6,1.49184E6,2.50784E6,2.00192E6,2.211968E6,3.06816E6,1.9200318E6,2.089474E6,1.83672E5,1.452976E6,1.083104E6,7.96384E5,6.38592E5,3.34784E5,4.0384E4,0E0,1.2672E4,5.888E3,3.6608E4,6.4192E4,2.85184E5,1.92032E5,1.79552E5,3.07856E5,3.92784E5,1.23328E5,8.7332E4,6.16202E5,3.02175E5,1.8551808E5,1.4759525E5,5.38786E5,9.854E3,4.6712E4,9.0292E4,7.368E4,1.05952E5,0E0,0E0,7.3952E4,0E0,0E0,0E0,0E0,0E0,0E0,0E0,0E0,0E0,0E0,0E0,0E0,0E0,0E0,0E0,0E0,0E0,0E0,0E0,0E0,0E0,0E0,0E0,0E0,0E0,0E0,0E0,0E0,0E0,0E0,0E0,0E0,0E0,0E0,0E0,0E0,0E0,0E0,0E0,0E0,0E0,0E0,0E0,0E0,0E0,0E0,0E0,0E0,0E0,0E0],"parents":[2147483647,0,0,1,1,2,2,3,3,4,4,5,5,6,6,7,7,8,8,9,9,10,10,11,11,12,12,13,13,14,14,15,15,16,16,17,17,18,18,19,19,20,20,21,21,22,22,23,23,24,24,25,25,26,26,27,27,28,28,29,29,31,31,32,32,33,33,34,34,35,35,36,36,37,37,38,38,39,39,40,40,41,41,42,42,43,43,44,44,45,45,46,46,47,47,48,48,49,49,50,50,51,51,54,54],"right_children":[2,4,6,8,10,12,14,16,18,20,22,24,26,28,30,32,34,36,38,40,42,44,46,48,50,52,54,56,58,60,-1,62,64,66,68,70,72,74,76,78,80,82,84,86,88,90,92,94,96,98,100,102,-1,-1,104,-1,-1,-1,-1,-1,-1,-1,-1,-1,-1,-1,-1,-1,-1,-1,-1,-1,-1,-1,-1,-1,-1,-1,-1,-1,-1,-1,-1,-1,-1,-1,-1,-1,-1,-1,-1,-1,-1,-1,-1,-1,-1,-1,-1,-1,-1,-1,-1,-1,-1],"split_conditions":[7.122194E0,5.506841E0,8.206882E0,4.428215E0,6.3872747E0,7.653545E0,8.723364E0,3.8416877E0,5.02728E0,5.9497848E0,6.749275E0,7.3339195E0,7.9392796E0,8.481253E0,9.018194E0,3.4745498E0,4.14493E0,4.7620683E0,5.250453E0,5.7721996E0,6.121749E0,6.586415E0,6.915531E0,7.2113147E0,7.4909096E0,7.8329577E0,8.0517E0,8.322342E0,8.60324E0,8.84826E0,2.0350847E2,3.12513E0,3.6347115E0,4.021785E0,4.289335E0,4.595237E0,4.8719664E0,5.1598945E0,5.36064E0,5.596333E0,5.840184E0,6.052737E0,6.291044E0,6.486408E0,6.663645E0,6.8601446E0,7.0349245E0,7.181985E0,7.3037643E0,7.3928E0,7.519682E0,7.760529E0,1.0375732E2,1.142881E2,8.126819E0,1.4233969E2,1.5470212E2,1.6746542E2,1.7894296E2,1.8538582E2,1.9411563E2,-1.5189561E2,-1.4711461E2,-1.426458E2,-1.382528E2,-1.3249052E2,-1.27711815E2,-1.2382755E2,-1.1909259E2,-1.1374677E2,-1.0778025E2,-1.03012726E2,-9.747983E1,-9.1878105E1,-8.6130226E1,-8.253735E1,-7.634216E1,-7.042947E1,-6.3512196E1,-5.7208073E1,-5.226333E1,-4.5310078E1,-4.11551E1,-3.2686947E1,-2.4110128E1,-1.667099E1,-9.976281E0,-3.6136212E0,2.3664355E0,1.1191015E1,1.6974203E1,2.2934044E1,3.2649708E1,3.91774E1,4.268117E1,4.499543E1,5.025834E1,5.74019E1,6.30923E1,6.849543E1,7.5556656E1,8.727996E1,9.4214966E1,1.22685036E2,1.3133923E2],"split_indices":[0,0,0,0,0,0,0,0,0,0,0,0,0,0,0,0,0,0,0,0,0,0,0,0,0,0,0,0,0,0,0,0,0,0,0,0,0,0,0,0,0,0,0,0,0,0,0,0,0,0,0,0,0,0,0,0,0,0,0,0,0,0,0,0,0,0,0,0,0,0,0,0,0,0,0,0,0,0,0,0,0,0,0,0,0,0,0,0,0,0,0,0,0,0,0,0,0,0,0,0,0,0,0,0,0],"split_type":[0,0,0,0,0,0,0,0,0,0,0,0,0,0,0,0,0,0,0,0,0,0,0,0,0,0,0,0,0,0,0,0,0,0,0,0,0,0,0,0,0,0,0,0,0,0,0,0,0,0,0,0,0,0,0,0,0,0,0,0,0,0,0,0,0,0,0,0,0,0,0,0,0,0,0,0,0,0,0,0,0,0,0,0,0,0,0,0,0,0,0,0,0,0,0,0,0,0,0,0,0,0,0,0,0],"sum_hessian":[7.8E4,5.0866E4,2.7134E4,3.0754E4,2.0112E4,9.758E3,1.7376E4,1.6162E4,1.4592E4,1.1883E4,8.229E3,5.182E3,4.576E3,3.955E3,1.3421E4,8.837E3,7.325E3,7.919E3,6.673E3,6.129E3,5.754E3,4.308E3,3.921E3,2.14E3,3.042E3,2.44E3,2.136E3,2.131E3,1.824E3,2.135E3,1.1286E4,4.57E3,4.267E3,3.664E3,3.661E3,4.261E3,3.658E3,3.049E3,3.624E3,3.686E3,2.443E3,2.401E3,3.353E3,2.441E3,1.867E3,1.79E3,2.131E3,9.14E2,1.226E3,1.521E3,1.521E3,1.529E3,9.11E2,9.2E2,1.216E3,9.12E2,1.219E3,9.21E2,9.03E2,9.16E2,1.219E3,1.527E3,3.043E3,1.827E3,2.44E3,2.142E3,1.522E3,1.826E3,1.835E3,2.127E3,2.134E3,1.526E3,2.132E3,1.83E3,1.219E3,1.529E3,2.095E3,1.259E3,2.427E3,9.19E2,1.524E3,1.489E3,9.12E2,2.171E3,1.182E3,1.218E3,1.223E3,9.08E2,9.59E2,1.181E3,6.09E2,1.224E3,9.07E2,6.05E2,3.09E2,9.22E2,3.04E2,6.07E2,9.14E2,3.03E2,1.218E3,9.2E2,6.09E2,6.06E2,6.1E2],"tree_param":{"num_deleted":"0","num_feature":"1","num_nodes":"105","size_leaf_vector":"1"}},{"base_weights":[7.8288594E-4,-1.9114323E2,3.5224973E2,-2.751319E2,-6.6860146E1,1.8996632E2,4.506996E2,-3.1787616E2,-2.2580275E2,-1.1947563E2,6.8255014E0,1.3508238E2,2.5944202E2,3.7940384E2,4.7008615E2,-3.3919855E2,-2.957456E2,-2.4971057E2,-2.0184903E2,-1.4658673E2,-8.81818E1,-2.194338E1,4.5600792E1,1.0323487E2,1.6374889E2,2.3037932E2,2.9265366E2,1.03171295E2,3.9708524E2,4.4881055E2,1.4289534E2,-1.0489918E2,-9.9221886E1,-3.05421E2,-8.4736626E1,-2.6297882E2,-2.3942569E2,-2.1763884E2,-1.9163945E2,-1.6111948E2,-1.331236E2,-1.03493744E2,-7.30801E1,-3.6642643E1,-3.5981264E0,3.0738647E1,6.0129223E1,9.724663E1,1.2417657E2,1.4796689E2,1.7941307E2,6.450704E1,2.4562175E2,2.7958307E2,9.2950905E1,1.139249E2,1.24258125E2,1.2983073E2,1.3664055E2,-9.375728E1,-8.971549E1,-8.0337814E1,-7.741214E1,-7.3054695E1,-6.901646E1,-6.6944405E1,-6.393561E1,-5.9261898E1,-5.5086575E1,-4.948163E1,-4.656483E1,-4.191643E1,-3.7479946E1,-3.2993443E1,-2.9466084E1,-2.4616102E1,-1.980662E1,-1.41870775E1,-8.531523E0,-4.246366E0,1.2136716E0,6.04472E0,1.0695896E1,1.5166575E1,2.0910078E1,2.6482584E1,3.1136093E1,3.5230267E1,3.9166084E1,4.157617E1,4.623478E1,5.11991E1,5.5553047E1,7.12622E1,7.596692E1,7.965471E1,8.519461E1],"categories":[],"categories_nodes":[],"categories_segments":[],"categories_sizes":[],"default_left":[0,0,0,0,0,0,0,0,0,0,0,0,0,0,0,0,0,0,0,0,0,0,0,0,0,0,0,0,0,0,0,0,0,0,0,0,0,0,0,0,0,0,0,0,0,0,0,0,0,0,0,0,0,0,0,0,0,0,0,0,0,0,0,0,0,0,0,0,0,0,0,0,0,0,0,0,0,0,0,0,0,0,0,0,0,0,0,0,0,0,0,0,0,0,0,0,0],"id":2,"left_children":[1,3,5,7,9,11,13,15,17,19,21,23,25,27,29,31,33,35,37,39,41,43,45,47,49,51,53,-1,55,57,-1,-1,-1,59,-1,61,63,65,67,69,71,73,75,77,79,81,83,85,87,89,91,-1,93,95,-1,-1,-1,-1,-1,-1,-1,-1,-1,-1,-1,-1,-1,-1,-1,-1,-1,-1,-1,-1,-1,-1,-1,-1,-1,-1,-1,-1,-1,-1,-1,-1,-1,-1,-1,-1,-1,-1,-1,-1,-1,-1,-1],"loss_changes":[5.2518963E9,5.2778752E8,4.382853E8,6.3549184E7,7.906073E7,3.9476256E7,2.342528E7,7.526528E6,7.973376E6,1.0080592E7,9.478473E6,5.27004E6,4.3456E6,2.158208E6,1.565696E6,6.1248E5,9.34656E5,8.93376E5,1.087392E6,1.225472E6,1.270016E6,1.3152782E6,7.7958E5,3.32286E5,7.26464E5,5.18992E5,3.91744E5,0E0,5.64576E5,1.29472E5,0E0,0E0,0E0,1.13824E5,0E0,3.424E3,9.5712E4,2.0744E4,1.65344E5,4.3392E4,1.61628E5,8.2928E4,1.70973E5,2.3521375E5,1.7523556E5,9.2486625E4,1.640725E5,1.16404E5,1.0767E4,6.6482E4,4.5252E4,0E0,1.4728E4,9.6E1,0E0,0E0,0E0,0E0,0E0,0E0,0E0,0E0,0E0,0E0,0E0,0E0,0E0,0E0,0E0,0E0,0E0,0E0,0E0,0E0,0E0,0E0,0E0,0E0,0E0,0E0,0E0,0E0,0E0,0E0,0E0,0E0,0E0,0E0,0E0,0E0,0E0,0E0,0E0,0E0,0E0,0E0,0E0],"parents":[2147483647,0,0,1,1,2,2,3,3,4,4,5,5,6,6,7,7,8,8,9,9,10,10,11,11,12,12,13,13,14,14,15,15,16,16,17,17,18,18,19,19,20,20,21,21,22,22,23,23,24,24,25,25,26,26,28,28,29,29,33,33,35,35,36,36,37,37,38,38,39,39,40,40,41,41,42,42,43,43,44,44,45,45,46,46,47,47,48,48,49,49,50,50,52,52,53,53],"right_children":[2,4,6,8,10,12,14,16,18,20,22,24,26,28,30,32,34,36,38,40,42,44,46,48,50,52,54,-1,56,58,-1,-1,-1,60,-1,62,64,66,68,70,72,74,76,78,80,82,84,86,88,90,92,-1,94,96,-1,-1,-1,-1,-1,-1,-1,-1,-1,-1,-1,-1,-1,-1,-1,-1,-1,-1,-1,-1,-1,-1,-1,-1,-1,-1,-1,-1,-1,-1,-1,-1,-1,-1,-1,-1,-1,-1,-1,-1,-1,-1,-1],"split_conditions":[7.0931473E0,5.4682446E0,8.245094E0,4.428215E0,6.343787E0,7.688645E0,8.723364E0,3.7880418E0,4.95888E0,5.9267697E0,6.749275E0,7.3644385E0,7.975777E0,8.404992E0,9.164088E0,3.3843887E0,4.1699347E0,4.6686473E0,5.1598945E0,5.685212E0,6.121749E0,6.5594296E0,6.915531E0,7.3037643E0,7.519682E0,7.8329577E0,8.126819E0,1.03171295E2,8.560324E0,8.84826E0,1.4289534E2,-1.0489918E2,-9.9221886E1,3.9707222E0,-8.4736626E1,4.5443277E0,4.8719664E0,5.04916E0,5.33656E0,5.596333E0,5.817915E0,6.011395E0,6.2141647E0,6.4348683E0,6.637E0,6.80607E0,7.0018053E0,7.181985E0,7.3339195E0,7.4251E0,7.5865297E0,6.450704E1,7.905052E0,8.0122385E0,9.2950905E1,1.139249E2,1.24258125E2,1.2983073E2,1.3664055E2,-9.375728E1,-8.971549E1,-8.0337814E1,-7.741214E1,-7.3054695E1,-6.901646E1,-6.6944405E1,-6.393561E1,-5.9261898E1,-5.5086575E1,-4.948163E1,-4.656483E1,-4.191643E1,-3.7479946E1,-3.2993443E1,-2.9466084E1,-2.4616102E1,-1.980662E1,-1.41870775E1,-8.531523E0,-4.246366E0,1.2136716E0,6.04472E0,1.0695896E1,1.5166575E1,2.0910078E1,2.6482584E1,3.1136093E1,3.5230267E1,3.9166084E1,4.157617E1,4.623478E1,5.11991E1,5.5553047E1,7.12622E1,7.596692E1,7.965471E1,8.519461E1],"split_indices":[0,0,0,0,0,0,0,0,0,0,0,0,0,0,0,0,0,0,0,0,0,0,0,0,0,0,0,0,0,0,0,0,0,0,0,0,0,0,0,0,0,0,0,0,0,0,0,0,0,0,0,0,0,0,0,0,0,0,0,0,0,0,0,0,0,0,0,0,0,0,0,0,0,0,0,0,0,0,0,0,0,0,0,0,0,0,0,0,0,0,0,0,0,0,0,0,0],"split_type":[0,0,0,0,0,0,0,0,0,0,0,0,0,0,0,0,0,0,0,0,0,0,0,0,0,0,0,0,0,0,0,0,0,0,0,0,0,0,0,0,0,0,0,0,0,0,0,0,0,0,0,0,0,0,0,0,0,0,0,0,0,0,0,0,0,0,0,0,0,0,0,0,0,0,0,0,0,0,0,0,0,0,0,0,0,0,0,0,0,0,0,0,0,0,0,0,0],"sum_hessian":[7.8E4,5.0563E4,2.7437E4,3.0172E4,2.0391E4,1.0361E4,1.7076E4,1.6162E4,1.401E4,1.1896E4,8.495E3,5.79E3,4.571E3,3.655E3,1.3421E4,8.224E3,7.938E3,7.007E3,7.003E3,6.372E3,5.524E3,4.877E3,3.618E3,2.745E3,3.045E3,2.442E3,2.129E3,1.222E3,2.433E3,3.057E3,1.0364E4,3.658E3,4.566E3,4.581E3,3.357E3,3.049E3,3.958E3,2.742E3,4.261E3,3.059E3,3.313E3,2.74E3,2.784E3,2.707E3,2.17E3,1.79E3,1.828E3,2.139E3,6.06E2,1.522E3,1.523E3,1.224E3,1.218E3,1.219E3,9.1E2,1.22E3,1.213E3,9.16E2,2.141E3,2.143E3,2.438E3,1.517E3,1.532E3,2.738E3,1.22E3,1.214E3,1.528E3,2.441E3,1.82E3,1.841E3,1.218E3,1.826E3,1.487E3,1.22E3,1.52E3,1.221E3,1.563E3,1.176E3,1.531E3,9.11E2,1.259E3,5.69E2,1.221E3,9.17E2,9.11E2,9.08E2,1.231E3,3.04E2,3.02E2,6.12E2,9.1E2,6.17E2,9.06E2,6.06E2,6.12E2,3.05E2,9.14E2],"tree_param":{"num_deleted":"0","num_feature":"1","num_nodes":"97","size_leaf_vector":"1"}},{"base_weights":[4.0543736E-3,-1.3269836E2,2.4876668E2,-1.9262604E2,-4.5318287E1,1.3539276E2,3.1553363E2,-2.2320525E2,-1.5875764E2,-8.486329E1,4.9894657E0,9.677988E1,1.8171211E2,2.6284018E2,3.2840747E2,-2.3746379E2,-2.0780554E2,-1.7697382E2,-1.426951E2,-1.0368094E2,-6.41836E1,-1.8533094E1,3.1709703E1,7.4411804E1,1.1468809E2,1.6135219E2,2.0497859E2,2.4758415E2,2.809713E2,9.1539024E1,3.319622E2,-2.4221779E2,-6.834817E1,-2.1583711E2,-2.0031157E2,-5.5648952E1,-1.6983447E2,-1.5191931E2,-1.3268063E2,-1.12815025E2,-9.434828E1,-7.344194E1,-5.2752148E1,-3.1567392E1,-8.575127E0,2.1018173E1,4.6033737E1,7.0196526E1,8.704615E1,1.0097527E2,1.23782196E2,1.5275172E2,5.267175E1,1.958433E2,6.509624E1,7.2245224E1,7.822352E1,8.2097595E1,8.7490074E1,9.7167534E1,1.006564E2,-7.4501526E1,-7.147266E1,-6.58565E1,-6.360375E1,-6.142416E1,-5.8505566E1,-5.221613E1,-4.9649723E1,-4.6728745E1,-4.3702507E1,-4.1259125E1,-3.8745132E1,-3.4872875E1,-3.2838554E1,-2.9597939E1,-2.6963293E1,-2.4278833E1,-2.1056566E1,-1.7915552E1,-1.4590481E1,-1.0800861E1,-7.6162133E0,-3.970613E0,2.2336787E-1,4.677492E0,8.997119E0,1.1580627E1,1.6041594E1,1.9904385E1,2.2180714E1,2.4695831E1,2.7455036E1,2.9604162E1,3.2278324E1,3.5350407E1,3.8905514E1,4.419404E1,4.8161625E1,5.7005474E1,6.042388E1],"categories":[],"categories_nodes":[],"categories_segments":[],"categories_sizes":[],"default_left":[0,0,0,0,0,0,0,0,0,0,0,0,0,0,0,0,0,0,0,0,0,0,0,0,0,0,0,0,0,0,0,0,0,0,0,0,0,0,0,0,0,0,0,0,0,0,0,0,0,0,0,0,0,0,0,0,0,0,0,0,0,0,0,0,0,0,0,0,0,0,0,0,0,0,0,0,0,0,0,0,0,0,0,0,0,0,0,0,0,0,0,0,0,0,0,0,0,0,0,0,0],"id":3,"left_children":[1,3,5,7,9,11,13,15,17,19,21,23,25,27,29,31,33,35,37,39,41,43,45,47,49,51,53,55,57,-1,59,61,-1,63,65,-1,67,69,71,73,75,77,79,81,83,85,87,89,91,93,95,97,-1,99,-1,-1,-1,-1,-1,-1,-1,-1,-1,-1,-1,-1,-1,-1,-1,-1,-1,-1,-1,-1,-1,-1,-1,-1,-1,-1,-1,-1,-1,-1,-1,-1,-1,-1,-1,-1,-1,-1,-1,-1,-1,-1,-1,-1,-1,-1,-1],"loss_changes":[2.5749553E9,2.6635552E8,2.0535923E8,3.1213696E7,4.1171484E7,1.7973168E7,1.1498112E7,3.431936E6,4.164736E6,4.502336E6,5.7258525E6,2.189804E6,2.132688E6,8.5928E5,1.034112E6,3.21632E5,4.16E5,3.76528E5,6.83264E5,5.06372E5,5.8066E5,6.285864E5,6.521995E5,1.23996E5,3.67356E5,2.7196E5,1.91176E5,1.0036E5,3.9256E4,0E0,2.3296E5,7.4432E4,0E0,5.168E3,5.3072E4,0E0,3.816E4,7.2272E4,4.488E4,2.2448E4,4.9076E4,6.8593E4,6.8083E4,5.6595E4,1.1936116E5,1.18526125E5,9.8653E4,2.153E4,5.2935E3,7.913E3,4.8858E4,4.114E4,0E0,1.316E3,0E0,0E0,0E0,0E0,0E0,0E0,0E0,0E0,0E0,0E0,0E0,0E0,0E0,0E0,0E0,0E0,0E0,0E0,0E0,0E0,0E0,0E0,0E0,0E0,0E0,0E0,0E0,0E0,0E0,0E0,0E0,0E0,0E0,0E0,0E0,0E0,0E0,0E0,0E0,0E0,0E0,0E0,0E0,0E0,0E0,0E0,0E0],"parents":[2147483647,0,0,1,1,2,2,3,3,4,4,5,5,6,6,7,7,8,8,9,9,10,10,11,11,12,12,13,13,14,14,15,15,16,16,17,17,18,18,19,19,20,20,21,21,22,22,23,23,24,24,25,25,26,26,27,27,28,28,30,30,31,31,33,33,34,34,36,36,37,37,38,38,39,39,40,40,41,41,42,42,43,43,44,44,45,45,46,46,47,47,48,48,49,49,50,50,51,51,53,53],"right_children":[2,4,6,8,10,12,14,16,18,20,22,24,26,28,30,32,34,36,38,40,42,44,46,48,50,52,54,56,58,-1,60,62,-1,64,66,-1,68,70,72,74,76,78,80,82,84,86,88,90,92,94,96,98,-1,100,-1,-1,-1,-1,-1,-1,-1,-1,-1,-1,-1,-1,-1,-1,-1,-1,-1,-1,-1,-1,-1,-1,-1,-1,-1,-1,-1,-1,-1,-1,-1,-1,-1,-1,-1,-1,-1,-1,-1,-1,-1,-1,-1,-1,-1,-1,-1],"split_conditions":[7.122194E0,5.4682446E0,8.245094E0,4.4054046E0,6.316318E0,7.688645E0,8.68164E0,3.7880418E0,4.9154887E0,5.903184E0,6.717868E0,7.3644385E0,7.975777E0,8.481253E0,8.9334545E0,3.5565948E0,4.096963E0,4.6446548E0,5.205726E0,5.685212E0,6.121749E0,6.486408E0,6.94333E0,7.3037643E0,7.4909096E0,7.8691597E0,8.126819E0,8.404992E0,8.60324E0,9.1539024E1,9.583719E0,3.21451E0,-6.834817E1,3.9451199E0,4.2661123E0,-5.5648952E1,4.7852893E0,5.0937614E0,5.31665E0,5.571274E0,5.79462E0,5.9687567E0,6.190589E0,6.4155293E0,6.637E0,6.8601446E0,7.0349245E0,7.2113147E0,7.3339195E0,7.459289E0,7.5865297E0,7.7939897E0,5.267175E1,8.0517E0,6.509624E1,7.2245224E1,7.822352E1,8.2097595E1,8.7490074E1,9.7167534E1,1.006564E2,-7.4501526E1,-7.147266E1,-6.58565E1,-6.360375E1,-6.142416E1,-5.8505566E1,-5.221613E1,-4.9649723E1,-4.6728745E1,-4.3702507E1,-4.1259125E1,-3.8745132E1,-3.4872875E1,-3.2838554E1,-2.9597939E1,-2.6963293E1,-2.4278833E1,-2.1056566E1,-1.7915552E1,-1.4590481E1,-1.0800861E1,-7.6162133E0,-3.970613E0,2.2336787E-1,4.677492E0,8.997119E0,1.1580627E1,1.6041594E1,1.9904385E1,2.2180714E1,2.4695831E1,2.7455036E1,2.9604162E1,3.2278324E1,3.5350407E1,3.8905514E1,4.419404E1,4.8161625E1,5.7005474E1,6.042388E1],"split_indices":[0,0,0,0,0,0,0,0,0,0,0,0,0,0,0,0,0,0,0,0,0,0,0,0,0,0,0,0,0,0,0,0,0,0,0,0,0,0,0,0,0,0,0,0,0,0,0,0,0,0,0,0,0,0,0,0,0,0,0,0,0,0,0,0,0,0,0,0,0,0,0,0,0,0,0,0,0,0,0,0,0,0,0,0,0,0,0,0,0,0,0,0,0,0,0,0,0,0,0,0,0],"split_type":[0,0,0,0,0,0,0,0,0,0,0,0,0,0,0,0,0,0,0,0,0,0,0,0,0,0,0,0,0,0,0,0,0,0,0,0,0,0,0,0,0,0,0,0,0,0,0,0,0,0,0,0,0,0,0,0,0,0,0,0,0,0,0,0,0,0,0,0,0,0,0,0,0,0,0,0,0,0,0,0,0,0,0,0,0,0,0,0,0,0,0,0,0,0,0,0,0,0,0,0,0],"sum_hessian":[7.8E4,5.0866E4,2.7134E4,3.0172E4,2.0694E4,1.0058E4,1.7076E4,1.5853E4,1.4319E4,1.1586E4,9.108E3,5.487E3,4.571E3,3.357E3,1.3719E4,8.224E3,7.629E3,6.705E3,7.614E3,6.064E3,5.522E3,4.844E3,4.264E3,2.442E3,3.045E3,2.442E3,2.129E3,1.831E3,1.526E3,1.829E3,1.189E4,5.491E3,2.733E3,3.669E3,3.96E3,3.045E3,3.66E3,3.956E3,3.658E3,3.059E3,3.005E3,3.048E3,2.474E3,2.097E3,2.747E3,2.443E3,1.821E3,1.836E3,6.06E2,1.219E3,1.826E3,1.529E3,9.13E2,1.219E3,9.1E2,1.222E3,6.09E2,9.21E2,6.05E2,3.667E3,8.223E3,2.138E3,3.353E3,1.84E3,1.829E3,2.134E3,1.826E3,1.835E3,1.825E3,2.434E3,1.522E3,1.525E3,2.133E3,1.496E3,1.563E3,1.519E3,1.486E3,9.16E2,2.132E3,9.14E2,1.56E3,1.218E3,8.79E2,1.831E3,9.16E2,1.524E3,9.19E2,9.14E2,9.07E2,9.14E2,9.22E2,3.04E2,3.02E2,9.17E2,3.02E2,9.2E2,9.06E2,9.12E2,6.17E2,6.13E2,6.06E2],"tree_param":{"num_deleted":"0","num_feature":"1","num_nodes":"101","size_leaf_vector":"1"}},{"base_weights":[5.3153965E-3,-9.2908005E1,1.741797E2,-1.3486446E2,-3.173164E1,9.288139E1,2.1982718E2,-1.5462152E2,-1.091071E2,-5.8596622E1,4.595719E0,6.605984E1,1.2323386E2,1.8540363E2,2.3101709E2,-1.6587576E2,-1.4334125E2,-1.1947139E2,-9.716311E1,-7.259714E1,-4.402921E1,-1.0062988E1,2.5180735E1,5.2126846E1,7.845394E1,1.0925178E2,1.391473E2,1.7125789E2,1.9942949E2,2.2311565E2,7.032445E1,-1.7130975E2,-1.6113776E2,-1.4865213E2,-1.3622478E2,-3.7959774E1,-1.1491341E2,-1.02702965E2,-9.157859E1,-7.8992645E1,-6.606259E1,-5.2288876E1,-3.6506504E1,-1.9352833E1,-1.9442484E0,2.0019176E1,3.5551094E1,4.9160484E1,6.1018246E1,7.07334E1,8.459101E1,1.0166171E2,1.1671538E2,1.3297536E2,4.418279E1,4.7324867E1,1.765806E2,5.6602833E1,6.108343E1,6.2749493E1,6.72628E1,-5.4202785E1,-5.0868404E1,-4.9273266E1,-4.725898E1,-4.5777184E1,-4.366094E1,-4.2296173E1,-4.0376995E1,-3.5142605E1,-3.324585E1,-3.1728886E1,-2.9867207E1,-2.7930666E1,-2.559318E1,-2.4072443E1,-2.2175373E1,-2.0606667E1,-1.8582087E1,-1.7003134E1,-1.50299015E1,-1.2076757E1,-9.339073E0,-7.3029146E0,-4.8880277E0,-1.5472008E0,1.3452154E0,5.156994E0,7.412885E0,8.952979E0,1.1234425E1,1.4135201E1,1.59313965E1,1.7311382E1,1.9245712E1,2.0256897E1,2.215616E1,2.361935E1,2.5794893E1,2.9964449E1,3.2046753E1,3.373652E1,3.625819E1,3.8460686E1,4.1259453E1,5.169827E1,5.4794937E1],"categories":[],"categories_nodes":[],"categories_segments":[],"categories_sizes":[],"default_left":[0,0,0,0,0,0,0,0,0,0,0,0,0,0,0,0,0,0,0,0,0,0,0,0,0,0,0,0,0,0,0,0,0,0,0,0,0,0,0,0,0,0,0,0,0,0,0,0,0,0,0,0,0,0,0,0,0,0,0,0,0,0,0,0,0,0,0,0,0,0,0,0,0,0,0,0,0,0,0,0,0,0,0,0,0,0,0,0,0,0,0,0,0,0,0,0,0,0,0,0,0,0,0,0,0,0,0],"id":4,"left_children":[1,3,5,7,9,11,13,15,17,19,21,23,25,27,29,31,33,35,37,39,41,43,45,47,49,51,53,55,57,59,-1,61,63,65,67,-1,69,71,73,75,77,79,81,83,85,87,89,91,93,95,97,99,101,103,-1,-1,105,-1,-1,-1,-1,-1,-1,-1,-1,-1,-1,-1,-1,-1,-1,-1,-1,-1,-1,-1,-1,-1,-1,-1,-1,-1,-1,-1,-1,-1,-1,-1,-1,-1,-1,-1,-1,-1,-1,-1,-1,-1,-1,-1,-1,-1,-1,-1,-1,-1,-1],"loss_changes":[1.2623158E9,1.305583E8,1.0067923E8,1.5337792E7,2.019722E7,7.936664E6,6.650816E6,2.14368E6,1.610176E6,2.423212E6,2.655349E6,8.90946E5,1.003192E6,8.12624E5,2.99584E5,1.92256E5,3.02288E5,2.11072E5,1.79064E5,2.48248E5,3.60524E5,3.8763062E5,1.95198E5,6.14345E4,1.2389E5,1.26414E5,8.7632E4,1.2544E5,5.768E4,1.3552E4,0E0,3.4248E4,2.544E4,3.7624E4,9.52E3,0E0,2.5988E4,1.883E4,2.1118E4,1.3462E4,2.829E4,2.3848E4,6.0348E4,3.6198625E4,5.6699594E4,3.2034062E4,1.2038E4,1.2301E4,2.60225E3,7.2355E3,5.644E3,5.2E2,8.025E3,9.006E3,0E0,0E0,7.788E3,0E0,0E0,0E0,0E0,0E0,0E0,0E0,0E0,0E0,0E0,0E0,0E0,0E0,0E0,0E0,0E0,0E0,0E0,0E0,0E0,0E0,0E0,0E0,0E0,0E0,0E0,0E0,0E0,0E0,0E0,0E0,0E0,0E0,0E0,0E0,0E0,0E0,0E0,0E0,0E0,0E0,0E0,0E0,0E0,0E0,0E0,0E0,0E0,0E0,0E0],"parents":[2147483647,0,0,1,1,2,2,3,3,4,4,5,5,6,6,7,7,8,8,9,9,10,10,11,11,12,12,13,13,14,14,15,15,16,16,17,17,18,18,19,19,20,20,21,21,22,22,23,23,24,24,25,25,26,26,27,27,28,28,29,29,31,31,32,32,33,33,34,34,36,36,37,37,38,38,39,39,40,40,41,41,42,42,43,43,44,44,45,45,46,46,47,47,48,48,49,49,50,50,51,51,52,52,53,53,56,56],"right_children":[2,4,6,8,10,12,14,16,18,20,22,24,26,28,30,32,34,36,38,40,42,44,46,48,50,52,54,56,58,60,-1,62,64,66,68,-1,70,72,74,76,78,80,82,84,86,88,90,92,94,96,98,100,102,104,-1,-1,106,-1,-1,-1,-1,-1,-1,-1,-1,-1,-1,-1,-1,-1,-1,-1,-1,-1,-1,-1,-1,-1,-1,-1,-1,-1,-1,-1,-1,-1,-1,-1,-1,-1,-1,-1,-1,-1,-1,-1,-1,-1,-1,-1,-1,-1,-1,-1,-1,-1,-1],"split_conditions":[7.122194E0,5.4682446E0,8.206882E0,4.49751E0,6.343787E0,7.653545E0,8.765775E0,3.8178053E0,5.02728E0,5.903184E0,6.774965E0,7.3644385E0,7.9392796E0,8.481253E0,9.376447E0,3.416761E0,4.2193747E0,4.71543E0,5.250453E0,5.685212E0,6.10114E0,6.53571E0,7.0018053E0,7.3037643E0,7.4909096E0,7.7939897E0,8.091043E0,8.283947E0,8.560324E0,8.803985E0,7.032445E1,2.9317899E0,3.6347115E0,3.996722E0,4.289335E0,-3.7959774E1,4.9154887E0,5.1373396E0,5.4235525E0,5.64246E0,5.817915E0,5.9687567E0,6.2390947E0,6.4155293E0,6.688986E0,6.915531E0,7.0349245E0,7.2416925E0,7.3339195E0,7.4251E0,7.519682E0,7.760529E0,7.8691597E0,8.0122385E0,4.418279E1,4.7324867E1,8.404992E0,5.6602833E1,6.108343E1,6.2749493E1,6.72628E1,-5.4202785E1,-5.0868404E1,-4.9273266E1,-4.725898E1,-4.5777184E1,-4.366094E1,-4.2296173E1,-4.0376995E1,-3.5142605E1,-3.324585E1,-3.1728886E1,-2.9867207E1,-2.7930666E1,-2.559318E1,-2.4072443E1,-2.2175373E1,-2.0606667E1,-1.8582087E1,-1.7003134E1,-1.50299015E1,-1.2076757E1,-9.339073E0,-7.3029146E0,-4.8880277E0,-1.5472008E0,1.3452154E0,5.156994E0,7.412885E0,8.952979E0,1.1234425E1,1.4135201E1,1.59313965E1,1.7311382E1,1.9245712E1,2.0256897E1,2.215616E1,2.361935E1,2.5794893E1,2.9964449E1,3.2046753E1,3.373652E1,3.625819E1,3.8460686E1,4.1259453E1,5.169827E1,5.4794937E1],"split_indices":[0,0,0,0,0,0,0,0,0,0,0,0,0,0,0,0,0,0,0,0,0,0,0,0,0,0,0,0,0,0,0,0,0,0,0,0,0,0,0,0,0,0,0,0,0,0,0,0,0,0,0,0,0,0,0,0,0,0,0,0,0,0,0,0,0,0,0,0,0,0,0,0,0,0,0,0,0,0,0,0,0,0,0,0,0,0,0,0,0,0,0,0,0,0,0,0,0,0,0,0,0,0,0,0,0,0,0],"split_type":[0,0,0,0,0,0,0,0,0,0,0,0,0,0,0,0,0,0,0,0,0,0,0,0,0,0,0,0,0,0,0,0,0,0,0,0,0,0,0,0,0,0,0,0,0,0,0,0,0,0,0,0,0,0,0,0,0,0,0,0,0,0,0,0,0,0,0,0,0,0,0,0,0,0,0,0,0,0,0,0,0,0,0,0,0,0,0,0,0,0,0,0,0,0,0,0,0,0,0,0,0,0,0,0,0,0,0],"sum_hessian":[7.8E4,5.0866E4,2.7134E4,3.0172E4,2.0694E4,9.758E3,1.7376E4,1.7072E4,1.31E4,1.1896E4,8.798E3,5.182E3,4.576E3,4.267E3,1.3109E4,8.539E3,8.533E3,7.009E3,6.091E3,6.064E3,5.832E3,5.139E3,3.659E3,2.442E3,2.74E3,2.44E3,2.136E3,2.131E3,2.136E3,3.962E3,9.147E3,3.961E3,4.578E3,4.875E3,3.658E3,2.739E3,4.27E3,3.049E3,3.042E3,3.059E3,3.005E3,2.777E3,3.055E3,2.396E3,2.743E3,2.445E3,1.214E3,1.836E3,6.06E2,1.219E3,1.521E3,1.217E3,1.223E3,1.224E3,9.12E2,6.11E2,1.52E3,6.11E2,1.525E3,3.02E2,3.66E3,6.07E2,3.354E3,2.436E3,2.142E3,2.132E3,2.743E3,9.13E2,2.745E3,2.747E3,1.523E3,1.529E3,1.52E3,2.436E3,6.06E2,2.443E3,6.16E2,1.826E3,1.179E3,9.16E2,1.861E3,1.796E3,1.259E3,9.08E2,1.488E3,1.829E3,9.14E2,1.528E3,9.17E2,3.07E2,9.07E2,1.218E3,6.18E2,3.04E2,3.02E2,6.12E2,6.07E2,3.03E2,1.218E3,9.2E2,2.97E2,6.17E2,6.06E2,6.12E2,6.12E2,9.11E2,6.09E2],"tree_param":{"num_deleted":"0","num_feature":"1","num_nodes":"107","size_leaf_vector":"1"}},{"base_weights":[5.9318077E-3,-6.560789E1,1.2092207E2,-9.442485E1,-2.296569E1,6.2492695E1,1.5314143E2,-1.0944797E2,-7.778581E1,-4.163429E1,1.601201E0,4.526933E1,8.4611435E1,1.22820305E2,1.6024483E2,-1.1760081E2,-1.0297416E2,-8.499639E1,-6.803307E1,-5.083208E1,-3.1526339E1,-7.693254E0,1.6690025E1,3.4410866E1,5.3975483E1,7.5089836E1,9.41023E1,1.1385502E2,1.3018716E2,1.4780898E2,1.6277792E2,-3.7290134E1,-1.1617468E2,-1.0718514E2,-9.8435234E1,-8.9873795E1,-8.045539E1,-7.191226E1,-6.4122604E1,-5.49555E1,-4.5706974E1,-3.5213276E1,-2.403007E1,-1.29898815E1,5.6862116E-1,1.2639773E1,2.1582533E1,3.007422E1,3.6954872E1,4.74695E1,5.829748E1,2.0984867E1,7.892134E1,2.6623737E1,2.9419643E1,3.309976E1,3.5707005E1,3.824567E1,4.0601864E1,4.3416954E1,4.5825195E1,4.770483E1,1.6510779E2,-3.5160873E1,-3.3960922E1,-3.2533844E1,-3.1374834E1,-3.0027744E1,-2.8618147E1,-2.7753624E1,-2.6271559E1,-2.4833607E1,-2.3426353E1,-2.2216442E1,-2.0912931E1,-1.9554905E1,-1.7927877E1,-1.7085508E1,-1.5747651E1,-1.4242583E1,-1.3012183E1,-1.14051285E1,-9.407914E0,-7.50767E0,-6.5963764E0,-5.0228167E0,-2.982502E0,-4.100866E-1,9.4209206E-1,3.052287E0,4.527456E0,5.733775E0,7.584721E0,8.405299E0,9.31688E0,1.0817885E1,1.213499E1,1.3653656E1,1.4800027E1,1.6618221E1,1.8338276E1,2.2973568E1,2.4343706E1,4.9692913E1,4.569081E1],"categories":[],"categories_nodes":[],"categories_segments":[],"categories_sizes":[],"default_left":[0,0,0,0,0,0,0,0,0,0,0,0,0,0,0,0,0,0,0,0,0,0,0,0,0,0,0,0,0,0,0,0,0,0,0,0,0,0,0,0,0,0,0,0,0,0,0,0,0,0,0,0,0,0,0,0,0,0,0,0,0,0,0,0,0,0,0,0,0,0,0,0,0,0,0,0,0,0,0,0,0,0,0,0,0,0,0,0,0,0,0,0,0,0,0,0,0,0,0,0,0,0,0,0,0],"id":5,"left_children":[1,3,5,7,9,11,13,15,17,19,21,23,25,27,29,31,33,35,37,39,41,43,45,47,49,51,53,55,57,59,61,-1,63,65,67,69,71,73,75,77,79,81,83,85,87,89,91,93,95,97,99,-1,101,-1,-1,-1,-1,-1,-1,-1,-1,-1,103,-1,-1,-1,-1,-1,-1,-1,-1,-1,-1,-1,-1,-1,-1,-1,-1,-1,-1,-1,-1,-1,-1,-1,-1,-1,-1,-1,-1,-1,-1,-1,-1,-1,-1,-1,-1,-1,-1,-1,-1,-1,-1],"loss_changes":[6.188499E8,6.213179E7,5.164403E7,7.533856E6,9.35244E6,3.712048E6,3.789344E6,8.24656E5,1.001248E6,1.07565E6,1.2351029E6,5.16763E5,3.78716E5,2.0716E5,4.272E5,5.2536E4,1.58504E5,1.75024E5,8.7802E4,1.2566E5,1.518005E5,2.3849981E5,6.624906E4,2.585175E4,8.2799E4,3.6548E4,3.6598E4,1.4614E4,8.332E3,1.5028E4,7.7984E4,0E0,4.432E3,3.68E3,1.1972E4,1.5942E4,1.703E4,9.23E3,1.0183E4,1.3513E4,9.1205E3,3.87855E4,3.157875E3,3.7823938E4,1.0606779E4,1.096275E4,1.339825E4,9.6575E2,3.34775E3,2.2055E3,1.16015E4,0E0,1.225E2,0E0,0E0,0E0,0E0,0E0,0E0,0E0,0E0,0E0,2.4928E4,0E0,0E0,0E0,0E0,0E0,0E0,0E0,0E0,0E0,0E0,0E0,0E0,0E0,0E0,0E0,0E0,0E0,0E0,0E0,0E0,0E0,0E0,0E0,0E0,0E0,0E0,0E0,0E0,0E0,0E0,0E0,0E0,0E0,0E0,0E0,0E0,0E0,0E0,0E0,0E0,0E0,0E0],"parents":[2147483647,0,0,1,1,2,2,3,3,4,4,5,5,6,6,7,7,8,8,9,9,10,10,11,11,12,12,13,13,14,14,15,15,16,16,17,17,18,18,19,19,20,20,21,21,22,22,23,23,24,24,25,25,26,26,27,27,28,28,29,29,30,30,32,32,33,33,34,34,35,35,36,36,37,37,38,38,39,39,40,40,41,41,42,42,43,43,44,44,45,45,46,46,47,47,48,48,49,49,50,50,52,52,62,62],"right_children":[2,4,6,8,10,12,14,16,18,20,22,24,26,28,30,32,34,36,38,40,42,44,46,48,50,52,54,56,58,60,62,-1,64,66,68,70,72,74,76,78,80,82,84,86,88,90,92,94,96,98,100,-1,102,-1,-1,-1,-1,-1,-1,-1,-1,-1,104,-1,-1,-1,-1,-1,-1,-1,-1,-1,-1,-1,-1,-1,-1,-1,-1,-1,-1,-1,-1,-1,-1,-1,-1,-1,-1,-1,-1,-1,-1,-1,-1,-1,-1,-1,-1,-1,-1,-1,-1,-1,-1],"split_conditions":[7.0931473E0,5.4682446E0,8.165745E0,4.4054046E0,6.316318E0,7.653545E0,8.60324E0,3.6886532E0,5.02728E0,5.903184E0,6.774965E0,7.3339195E0,7.905052E0,8.362123E0,8.9334545E0,3.074175E0,4.0720944E0,4.71543E0,5.250453E0,5.706E0,6.1701097E0,6.586415E0,6.94333E0,7.181985E0,7.459289E0,7.760529E0,8.0122385E0,8.283947E0,8.521443E0,8.803985E0,9.797689E0,-3.7290134E1,3.5565948E0,3.9451199E0,4.289335E0,4.5443277E0,4.8719664E0,5.1373396E0,5.4235525E0,5.596333E0,5.817915E0,6.052737E0,6.266885E0,6.4348683E0,6.688986E0,6.8601446E0,7.0349245E0,7.122194E0,7.3037643E0,7.3928E0,7.5525494E0,2.0984867E1,7.8329577E0,2.6623737E1,2.9419643E1,3.309976E1,3.5707005E1,3.824567E1,4.0601864E1,4.3416954E1,4.5825195E1,4.770483E1,1.4944234E1,-3.5160873E1,-3.3960922E1,-3.2533844E1,-3.1374834E1,-3.0027744E1,-2.8618147E1,-2.7753624E1,-2.6271559E1,-2.4833607E1,-2.3426353E1,-2.2216442E1,-2.0912931E1,-1.9554905E1,-1.7927877E1,-1.7085508E1,-1.5747651E1,-1.4242583E1,-1.3012183E1,-1.14051285E1,-9.407914E0,-7.50767E0,-6.5963764E0,-5.0228167E0,-2.982502E0,-4.100866E-1,9.4209206E-1,3.052287E0,4.527456E0,5.733775E0,7.584721E0,8.405299E0,9.31688E0,1.0817885E1,1.213499E1,1.3653656E1,1.4800027E1,1.6618221E1,1.8338276E1,2.2973568E1,2.4343706E1,4.9692913E1,4.569081E1],"split_indices":[0,0,0,0,0,0,0,0,0,0,0,0,0,0,0,0,0,0,0,0,0,0,0,0,0,0,0,0,0,0,0,0,0,0,0,0,0,0,0,0,0,0,0,0,0,0,0,0,0,0,0,0,0,0,0,0,0,0,0,0,0,0,0,0,0,0,0,0,0,0,0,0,0,0,0,0,0,0,0,0,0,0,0,0,0,0,0,0,0,0,0,0,0,0,0,0,0,0,0,0,0,0,0,0,0],"split_type":[0,0,0,0,0,0,0,0,0,0,0,0,0,0,0,0,0,0,0,0,0,0,0,0,0,0,0,0,0,0,0,0,0,0,0,0,0,0,0,0,0,0,0,0,0,0,0,0,0,0,0,0,0,0,0,0,0,0,0,0,0,0,0,0,0,0,0,0,0,0,0,0,0,0,0,0,0,0,0,0,0,0,0,0,0,0,0,0,0,0,0,0,0,0,0,0,0,0,0,0,0,0,0,0,0],"sum_hessian":[7.8E4,5.0563E4,2.7437E4,3.0172E4,2.0391E4,9.753E3,1.7684E4,1.5853E4,1.4319E4,1.1586E4,8.805E3,5.485E3,4.268E3,3.36E3,1.4324E4,7.009E3,8.844E3,8.228E3,6.091E3,6.064E3,5.522E3,5.449E3,3.356E3,2.443E3,3.042E3,2.135E3,2.133E3,1.523E3,1.837E3,2.434E3,1.189E4,1.215E3,5.794E3,4.576E3,4.268E3,3.958E3,4.27E3,3.049E3,3.042E3,3.355E3,2.709E3,3.699E3,1.823E3,3.32E3,2.129E3,1.838E3,1.518E3,9.08E2,1.535E3,1.219E3,1.823E3,9.2E2,1.215E3,9.17E2,1.216E3,9.19E2,6.04E2,1.222E3,6.15E2,1.517E3,9.17E2,4.574E3,7.316E3,4.276E3,1.518E3,3.055E3,1.521E3,2.742E3,1.526E3,1.826E3,2.132E3,2.138E3,2.132E3,1.529E3,1.52E3,2.436E3,6.06E2,1.841E3,1.514E3,1.53E3,1.179E3,2.136E3,1.563E3,1.218E3,6.05E2,1.486E3,1.834E3,1.215E3,9.14E2,9.19E2,9.19E2,9.14E2,6.04E2,3.03E2,6.05E2,1.231E3,3.04E2,6.07E2,6.12E2,9.1E2,9.13E2,6.09E2,6.06E2,7.011E3,3.05E2],"tree_param":{"num_deleted":"0","num_feature":"1","num_nodes":"105","size_leaf_vector":"1"}},{"base_weights":[5.6289537E-3,-4.593528E1,8.466763E1,-6.636021E1,-1.6438396E1,4.3768307E1,1.072205E2,-7.708129E1,-5.518842E1,-2.944947E1,1.122364E0,3.1707516E1,5.9257114E1,8.6018135E1,1.12187614E2,-8.192831E1,-7.221652E1,-6.062245E1,-4.87569E1,-3.555017E1,-2.164101E1,-5.386648E0,1.1689238E1,2.4104252E1,3.780369E1,5.2594864E1,6.5897835E1,8.074518E1,2.7680447E1,1.04002655E2,1.14109245E2,-8.498251E1,-7.986935E1,-2.2484797E1,-6.9685234E1,-6.4053734E1,-5.767095E1,-5.221212E1,-4.635427E1,-3.8428688E1,-3.132712E1,-2.4222347E1,-1.6828768E1,-9.095334E0,3.9829567E-1,9.28483E0,1.5915021E1,2.107145E1,2.5883362E1,3.397542E1,4.160713E1,4.9761536E1,1.688784E1,1.8645304E1,2.0600994E1,2.3180632E1,2.5249062E1,3.0400434E1,3.217268E1,3.34652E1,1.15588524E2,-2.6800053E1,-2.5160288E1,-2.4228018E1,-2.3416168E1,-2.1214207E1,-2.0396162E1,-1.9473162E1,-1.8686712E1,-1.7941965E1,-1.6811508E1,-1.6086203E1,-1.5317606E1,-1.4256812E1,-1.3103065E1,-1.2117812E1,-1.1035955E1,-9.674227E0,-8.817209E0,-7.9738045E0,-6.68624E0,-5.2572107E0,-4.6207294E0,-3.3273675E0,-1.7000523E0,-4.3764737E-1,5.3382355E-1,2.1375902E0,3.2705224E0,5.1242833E0,3.717575E0,5.892012E0,6.526424E0,7.2155933E0,8.12208E0,9.766874E0,1.0816592E1,1.20866165E1,1.3066513E1,1.3815922E1,1.5284988E1,3.4787178E1,3.202837E1],"categories":[],"categories_nodes":[],"categories_segments":[],"categories_sizes":[],"default_left":[0,0,0,0,0,0,0,0,0,0,0,0,0,0,0,0,0,0,0,0,0,0,0,0,0,0,0,0,0,0,0,0,0,0,0,0,0,0,0,0,0,0,0,0,0,0,0,0,0,0,0,0,0,0,0,0,0,0,0,0,0,0,0,0,0,0,0,0,0,0,0,0,0,0,0,0,0,0,0,0,0,0,0,0,0,0,0,0,0,0,0,0,0,0,0,0,0,0,0,0,0,0,0],"id":6,"left_children":[1,3,5,7,9,11,13,15,17,19,21,23,25,27,29,31,33,35,37,39,41,43,45,47,49,51,53,55,-1,57,59,61,63,-1,65,67,69,71,73,75,77,79,81,83,85,87,89,91,93,95,97,99,-1,-1,-1,-1,-1,-1,-1,-1,101,-1,-1,-1,-1,-1,-1,-1,-1,-1,-1,-1,-1,-1,-1,-1,-1,-1,-1,-1,-1,-1,-1,-1,-1,-1,-1,-1,-1,-1,-1,-1,-1,-1,-1,-1,-1,-1,-1,-1,-1,-1,-1],"loss_changes":[3.0338483E8,3.046228E7,2.5304032E7,3.574096E6,4.727146E6,1.82024E6,1.852832E6,3.53512E5,5.08488E5,5.6535E5,6.057388E5,2.533695E5,1.85405E5,1.03318E5,2.13424E5,4.1176E4,4.746E4,7.6596E4,5.326E4,7.9877E4,6.4373E4,1.1693084E5,3.3961062E4,1.2641625E4,4.2894E4,1.95785E4,1.7898E4,1.5254E4,0E0,1.2774E4,3.0992E4,7.33E3,1.09E3,0E0,2.124E3,1.486E3,1.1543E4,1.7185E3,1.0328E4,1.12925E4,3.88E3,1.4876875E4,1.5389375E3,2.2662438E4,5.46583E3,7.401672E3,4.7832188E3,4.6178125E2,2.697E3,3.318625E3,2.154E3,3.0215E3,0E0,0E0,0E0,0E0,0E0,0E0,0E0,0E0,1.1424E4,0E0,0E0,0E0,0E0,0E0,0E0,0E0,0E0,0E0,0E0,0E0,0E0,0E0,0E0,0E0,0E0,0E0,0E0,0E0,0E0,0E0,0E0,0E0,0E0,0E0,0E0,0E0,0E0,0E0,0E0,0E0,0E0,0E0,0E0,0E0,0E0,0E0,0E0,0E0,0E0,0E0,0E0],"parents":[2147483647,0,0,1,1,2,2,3,3,4,4,5,5,6,6,7,7,8,8,9,9,10,10,11,11,12,12,13,13,14,14,15,15,16,16,17,17,18,18,19,19,20,20,21,21,22,22,23,23,24,24,25,25,26,26,27,27,29,29,30,30,31,31,32,32,34,34,35,35,36,36,37,37,38,38,39,39,40,40,41,41,42,42,43,43,44,44,45,45,46,46,47,47,48,48,49,49,50,50,51,51,60,60],"right_children":[2,4,6,8,10,12,14,16,18,20,22,24,26,28,30,32,34,36,38,40,42,44,46,48,50,52,54,56,-1,58,60,62,64,-1,66,68,70,72,74,76,78,80,82,84,86,88,90,92,94,96,98,100,-1,-1,-1,-1,-1,-1,-1,-1,102,-1,-1,-1,-1,-1,-1,-1,-1,-1,-1,-1,-1,-1,-1,-1,-1,-1,-1,-1,-1,-1,-1,-1,-1,-1,-1,-1,-1,-1,-1,-1,-1,-1,-1,-1,-1,-1,-1,-1,-1,-1,-1],"split_conditions":[7.0931473E0,5.4449997E0,8.165745E0,4.35778E0,6.316318E0,7.653545E0,8.60324E0,3.7385392E0,4.95888E0,5.9267697E0,6.774965E0,7.3339195E0,7.905052E0,8.404992E0,8.973869E0,3.3216705E0,4.0479097E0,4.6446548E0,5.1598945E0,5.7286663E0,6.1701097E0,6.586415E0,6.971103E0,7.181985E0,7.4909096E0,7.7939897E0,8.0122385E0,8.283947E0,2.7680447E1,8.803985E0,9.797689E0,2.9317899E0,3.6095247E0,-2.2484797E1,4.242357E0,4.5443277E0,4.7852893E0,5.04916E0,5.36064E0,5.571274E0,5.862885E0,6.032605E0,6.266885E0,6.486408E0,6.663645E0,6.8601446E0,7.0648685E0,7.122194E0,7.2416925E0,7.4251E0,7.5865297E0,7.688645E0,1.688784E1,1.8645304E1,2.0600994E1,2.3180632E1,2.5249062E1,3.0400434E1,3.217268E1,3.34652E1,1.4944234E1,-2.6800053E1,-2.5160288E1,-2.4228018E1,-2.3416168E1,-2.1214207E1,-2.0396162E1,-1.9473162E1,-1.8686712E1,-1.7941965E1,-1.6811508E1,-1.6086203E1,-1.5317606E1,-1.4256812E1,-1.3103065E1,-1.2117812E1,-1.1035955E1,-9.674227E0,-8.817209E0,-7.9738045E0,-6.68624E0,-5.2572107E0,-4.6207294E0,-3.3273675E0,-1.7000523E0,-4.3764737E-1,5.3382355E-1,2.1375902E0,3.2705224E0,5.1242833E0,3.717575E0,5.892012E0,6.526424E0,7.2155933E0,8.12208E0,9.766874E0,1.0816592E1,1.20866165E1,1.3066513E1,1.3815922E1,1.5284988E1,3.4787178E1,3.202837E1],"split_indices":[0,0,0,0,0,0,0,0,0,0,0,0,0,0,0,0,0,0,0,0,0,0,0,0,0,0,0,0,0,0,0,0,0,0,0,0,0,0,0,0,0,0,0,0,0,0,0,0,0,0,0,0,0,0,0,0,0,0,0,0,0,0,0,0,0,0,0,0,0,0,0,0,0,0,0,0,0,0,0,0,0,0,0,0,0,0,0,0,0,0,0,0,0,0,0,0,0,0,0,0,0,0,0],"split_type":[0,0,0,0,0,0,0,0,0,0,0,0,0,0,0,0,0,0,0,0,0,0,0,0,0,0,0,0,0,0,0,0,0,0,0,0,0,0,0,0,0,0,0,0,0,0,0,0,0,0,0,0,0,0,0,0,0,0,0,0,0,0,0,0,0,0,0,0,0,0,0,0,0,0,0,0,0,0,0,0,0,0,0,0,0,0,0,0,0,0,0,0,0,0,0,0,0,0,0,0,0,0,0],"sum_hessian":[7.8E4,5.0563E4,2.7437E4,2.9875E4,2.0688E4,9.753E3,1.7684E4,1.5242E4,1.4633E4,1.1883E4,8.805E3,5.485E3,4.268E3,3.36E3,1.4324E4,7.627E3,7.615E3,7.927E3,6.706E3,6.669E3,5.214E3,5.449E3,3.356E3,2.443E3,3.042E3,2.135E3,2.133E3,1.83E3,1.53E3,2.734E3,1.159E4,3.055E3,4.572E3,3.648E3,3.967E3,3.656E3,4.271E3,2.742E3,3.964E3,3.961E3,2.708E3,3.391E3,1.823E3,3.32E3,2.129E3,2.141E3,1.215E3,9.08E2,1.535E3,1.521E3,1.521E3,1.217E3,9.18E2,9.17E2,1.216E3,9.19E2,9.11E2,1.517E3,1.217E3,4.274E3,7.316E3,6.07E2,2.448E3,3.038E3,1.534E3,2.445E3,1.522E3,2.437E3,1.219E3,1.835E3,2.436E3,1.214E3,1.528E3,2.748E3,1.216E3,1.793E3,2.168E3,1.825E3,8.83E2,1.523E3,1.868E3,1.218E3,6.05E2,2.097E3,1.223E3,9.08E2,1.221E3,9.19E2,1.222E3,9.1E2,3.05E2,3.03E2,6.05E2,6.13E2,9.22E2,9.14E2,6.07E2,9.2E2,6.01E2,3.05E2,9.12E2,7.011E3,3.05E2],"tree_param":{"num_deleted":"0","num_feature":"1","num_nodes":"103","size_leaf_vector":"1"}},{"base_weights":[4.5190426E-3,-3.2711586E1,5.829197E1,-4.6462032E1,-1.2256474E1,2.9643625E1,7.506784E1,-5.3967644E1,-3.8640892E1,-2.015211E1,6.2661344E-1,2.0798876E1,4.084552E1,6.1682926E1,7.89315E1,-5.6901253E1,-4.9911884E1,-4.280451E1,-3.4472565E1,-2.4466518E1,-1.4081702E1,-4.077551E0,5.715458E0,1.6179129E1,2.5924719E1,3.5402805E1,4.56009E1,5.6548077E1,6.6055695E1,7.5161934E1,8.045271E1,-5.9504765E1,-5.55156E1,-1.5419461E1,-1.4475714E1,-4.4848053E1,-4.075151E1,-3.6205585E1,-3.157396E1,-2.735418E1,-2.1988613E1,-1.6338482E1,-1.1450296E1,-6.161996E0,-1.6400529E0,2.0172336E0,7.5607214E0,1.4189582E1,1.8128351E1,2.3230701E1,2.8064335E1,9.573383E0,3.6762585E1,1.2633055E1,4.7667202E1,1.6233992E1,1.7682661E1,6.281213E1,2.0530481E1,2.179042E1,2.3010948E1,7.975949E1,8.340354E1,-1.9414204E1,-1.7670477E1,-1.6962004E1,-1.6308374E1,-1.3605404E1,-1.29857235E1,-1.2562309E1,-1.1880057E1,-1.1192142E1,-1.0359314E1,-9.702088E0,-9.175377E0,-8.359654E0,-7.511482E0,-7.0485067E0,-6.1995144E0,-5.3058586E0,-4.5827665E0,-3.629643E0,-3.092189E0,-1.6983091E0,-2.7781105E0,-7.5579906E-1,3.9396606E-2,4.9980858E-1,9.16211E-1,1.9503688E0,2.5834343E0,5.390602E0,3.9732049E0,5.2758265E0,6.0777903E0,6.6390705E0,7.28529E0,7.899319E0,8.753022E0,1.053162E1,1.135142E1,1.3879843E1,1.4914298E1,1.9799973E1,1.8338633E1,2.4211617E1,2.2338758E1,2.551867E1,2.2451271E1],"categories":[],"categories_nodes":[],"categories_segments":[],"categories_sizes":[],"default_left":[0,0,0,0,0,0,0,0,0,0,0,0,0,0,0,0,0,0,0,0,0,0,0,0,0,0,0,0,0,0,0,0,0,0,0,0,0,0,0,0,0,0,0,0,0,0,0,0,0,0,0,0,0,0,0,0,0,0,0,0,0,0,0,0,0,0,0,0,0,0,0,0,0,0,0,0,0,0,0,0,0,0,0,0,0,0,0,0,0,0,0,0,0,0,0,0,0,0,0,0,0,0,0,0,0,0,0,0,0],"id":7,"left_children":[1,3,5,7,9,11,13,15,17,19,21,23,25,27,29,31,33,35,37,39,41,43,45,47,49,51,53,55,57,59,61,63,65,-1,-1,67,69,71,73,75,77,79,81,83,85,87,89,91,93,95,97,-1,99,-1,101,-1,-1,103,-1,-1,-1,105,107,-1,-1,-1,-1,-1,-1,-1,-1,-1,-1,-1,-1,-1,-1,-1,-1,-1,-1,-1,-1,-1,-1,-1,-1,-1,-1,-1,-1,-1,-1,-1,-1,-1,-1,-1,-1,-1,-1,-1,-1,-1,-1,-1,-1,-1,-1],"loss_changes":[1.4874501E8,1.405152E7,1.3474792E7,1.751712E6,2.0430622E6,1.025399E6,9.09696E5,1.7852E5,2.525E5,3.25802E5,1.8274788E5,1.366885E5,1.166415E5,8.5316E4,7.2632E4,2.8582E4,1.3321E4,2.887E4,3.5618E4,5.14755E4,3.0550562E4,2.0145555E4,2.500907E4,1.15631875E4,1.515925E4,8.963E3,1.5556E4,7.4835E3,1.2185E4,9.854E3,1.3312E4,5.79E3,3.764E3,0E0,0E0,9.13E2,3.0745E3,7.147E3,1.093E3,3.2775E3,7.33425E3,3.71675E3,1.6490938E3,3.2661328E3,2.8506104E3,4.398789E2,2.667E3,5.1685312E3,1.4185938E3,8.770625E2,2.170125E3,0E0,1.398625E3,0E0,2.06525E3,0E0,0E0,8.81E2,0E0,0E0,0E0,3.3708E4,1.9706E4,0E0,0E0,0E0,0E0,0E0,0E0,0E0,0E0,0E0,0E0,0E0,0E0,0E0,0E0,0E0,0E0,0E0,0E0,0E0,0E0,0E0,0E0,0E0,0E0,0E0,0E0,0E0,0E0,0E0,0E0,0E0,0E0,0E0,0E0,0E0,0E0,0E0,0E0,0E0,0E0,0E0,0E0,0E0,0E0,0E0,0E0],"parents":[2147483647,0,0,1,1,2,2,3,3,4,4,5,5,6,6,7,7,8,8,9,9,10,10,11,11,12,12,13,13,14,14,15,15,16,16,17,17,18,18,19,19,20,20,21,21,22,22,23,23,24,24,25,25,26,26,27,27,28,28,29,29,30,30,31,31,32,32,35,35,36,36,37,37,38,38,39,39,40,40,41,41,42,42,43,43,44,44,45,45,46,46,47,47,48,48,49,49,50,50,52,52,54,54,57,57,61,61,62,62],"right_children":[2,4,6,8,10,12,14,16,18,20,22,24,26,28,30,32,34,36,38,40,42,44,46,48,50,52,54,56,58,60,62,64,66,-1,-1,68,70,72,74,76,78,80,82,84,86,88,90,92,94,96,98,-1,100,-1,102,-1,-1,104,-1,-1,-1,106,108,-1,-1,-1,-1,-1,-1,-1,-1,-1,-1,-1,-1,-1,-1,-1,-1,-1,-1,-1,-1,-1,-1,-1,-1,-1,-1,-1,-1,-1,-1,-1,-1,-1,-1,-1,-1,-1,-1,-1,-1,-1,-1,-1,-1,-1,-1],"split_conditions":[7.0349245E0,5.4449997E0,8.165745E0,4.35778E0,6.3632174E0,7.6210394E0,8.68164E0,3.8416877E0,4.9154887E0,5.9687567E0,6.688986E0,7.3339195E0,7.8691597E0,8.404992E0,9.264347E0,3.3216705E0,4.1187053E0,4.6446548E0,5.250453E0,5.685212E0,6.1701097E0,6.53571E0,6.80607E0,7.181985E0,7.459289E0,7.688645E0,7.975777E0,8.283947E0,8.521443E0,8.888294E0,1.2284675E1,2.802635E0,3.6095247E0,-1.5419461E1,-1.4475714E1,4.5705748E0,4.7852893E0,5.114989E0,5.36064E0,5.64246E0,5.817915E0,6.052737E0,6.291044E0,6.512429E0,6.637E0,6.774965E0,6.915531E0,7.0648685E0,7.3037643E0,7.3928E0,7.519682E0,9.573383E0,7.760529E0,1.2633055E1,8.091043E0,1.6233992E1,1.7682661E1,8.44287E0,2.0530481E1,2.179042E1,2.3010948E1,1.1430528E1,1.4944234E1,-1.9414204E1,-1.7670477E1,-1.6962004E1,-1.6308374E1,-1.3605404E1,-1.29857235E1,-1.2562309E1,-1.1880057E1,-1.1192142E1,-1.0359314E1,-9.702088E0,-9.175377E0,-8.359654E0,-7.511482E0,-7.0485067E0,-6.1995144E0,-5.3058586E0,-4.5827665E0,-3.629643E0,-3.092189E0,-1.6983091E0,-2.7781105E0,-7.5579906E-1,3.9396606E-2,4.9980858E-1,9.16211E-1,1.9503688E0,2.5834343E0,5.390602E0,3.9732049E0,5.2758265E0,6.0777903E0,6.6390705E0,7.28529E0,7.899319E0,8.753022E0,1.053162E1,1.135142E1,1.3879843E1,1.4914298E1,1.9799973E1,1.8338633E1,2.4211617E1,2.2338758E1,2.551867E1,2.2451271E1],"split_indices":[0,0,0,0,0,0,0,0,0,0,0,0,0,0,0,0,0,0,0,0,0,0,0,0,0,0,0,0,0,0,0,0,0,0,0,0,0,0,0,0,0,0,0,0,0,0,0,0,0,0,0,0,0,0,0,0,0,0,0,0,0,0,0,0,0,0,0,0,0,0,0,0,0,0,0,0,0,0,0,0,0,0,0,0,0,0,0,0,0,0,0,0,0,0,0,0,0,0,0,0,0,0,0,0,0,0,0,0,0],"split_type":[0,0,0,0,0,0,0,0,0,0,0,0,0,0,0,0,0,0,0,0,0,0,0,0,0,0,0,0,0,0,0,0,0,0,0,0,0,0,0,0,0,0,0,0,0,0,0,0,0,0,0,0,0,0,0,0,0,0,0,0,0,0,0,0,0,0,0,0,0,0,0,0,0,0,0,0,0,0,0,0,0,0,0,0,0,0,0,0,0,0,0,0,0,0,0,0,0,0,0,0,0,0,0,0,0,0,0,0,0],"sum_hessian":[7.8E4,4.9959E4,2.8041E4,2.9875E4,2.0084E4,1.0357E4,1.7684E4,1.5242E4,1.4633E4,1.2452E4,7.632E3,5.789E3,4.568E3,3.965E3,1.3719E4,8.837E3,6.405E3,7.316E3,7.317E3,7.277E3,5.175E3,3.966E3,3.666E3,3.047E3,2.742E3,2.134E3,2.434E3,1.83E3,2.135E3,3.959E3,9.76E3,3.055E3,5.782E3,3.363E3,3.042E3,3.656E3,3.66E3,4.572E3,2.745E3,3.356E3,3.921E3,2.783E3,2.392E3,2.137E3,1.829E3,1.221E3,2.445E3,1.512E3,1.535E3,1.219E3,1.523E3,6.05E2,1.529E3,9.13E2,1.521E3,9.19E2,9.11E2,9.15E2,1.22E3,1.518E3,2.441E3,7.926E3,1.834E3,3.06E2,2.749E3,3.038E3,2.744E3,2.744E3,9.12E2,1.835E3,1.825E3,2.745E3,1.827E3,1.529E3,1.216E3,2.74E3,6.16E2,1.826E3,2.095E3,1.22E3,1.563E3,1.52E3,8.72E2,1.842E3,2.95E2,1.222E3,6.07E2,9.14E2,3.07E2,1.221E3,1.224E3,2.99E2,1.213E3,1.231E3,3.04E2,6.07E2,6.12E2,6.05E2,9.18E2,6.15E2,9.14E2,9.17E2,6.04E2,3.03E2,6.12E2,6.713E3,1.213E3,1.529E3,3.05E2],"tree_param":{"num_deleted":"0","num_feature":"1","num_nodes":"109","size_leaf_vector":"1"}},{"base_weights":[4.686734E-3,-2.2525932E1,4.1525143E1,-3.217976E1,-7.53724E0,2.1512516E1,5.2560574E1,-3.7278496E1,-2.606379E1,-1.3479499E1,1.372226E0,1.5623746E1,2.907501E1,4.212265E1,5.50059E1,-3.9752533E1,-3.4308918E1,-2.8702414E1,-2.2906353E1,-1.669778E1,-9.723162E0,-1.7407049E0,5.610485E0,1.2331912E1,1.8915884E1,2.6165365E1,3.2942352E1,3.896099E1,4.4721256E1,5.1601364E1,5.6168144E1,-4.122286E1,-3.8457695E1,-3.5382793E1,-9.805529E0,-3.0124231E1,-2.7150454E1,-2.4467575E1,-2.1461071E1,-1.8188322E1,-1.4665961E1,-1.1307211E1,-7.741063E0,-3.492835E0,2.6889244E-1,4.616818E0,8.269365E0,1.1119049E1,1.3828766E1,1.7388363E1,2.0808828E1,2.4374012E1,2.792656E1,9.447822E0,1.0312459E1,1.1369083E1,4.0514652E1,4.2989414E1,1.3918561E1,1.4768564E1,1.5828393E1,5.494572E1,5.745313E1,-1.3098957E1,-1.2163945E1,-1.173933E1,-1.127201E1,-1.0885542E1,-1.0429413E1,-9.2412815E0,-8.795667E0,-8.39674E0,-8.016042E0,-7.5529337E0,-7.1934776E0,-6.626273E0,-6.096364E0,-5.743302E0,-5.161049E0,-4.575847E0,-4.166142E0,-3.7154083E0,-3.1742795E0,-2.4900298E0,-2.2127879E0,-1.3509495E0,-7.4513376E-1,-1.22082874E-1,3.5002738E-1,1.0160679E0,1.606443E0,3.0125675E0,1.4178761E0,2.9421768E0,3.4311209E0,5.332765E0,3.7433562E0,5.001616E0,5.5334325E0,6.129964E0,6.565954E0,7.7352147E0,6.8679476E0,8.090077E0,8.657274E0,1.2745168E1,1.152753E1,1.3354984E1,1.1942973E1,1.6670818E1,1.55435505E1,1.8679491E1,1.6787811E1],"categories":[],"categories_nodes":[],"categories_segments":[],"categories_sizes":[],"default_left":[0,0,0,0,0,0,0,0,0,0,0,0,0,0,0,0,0,0,0,0,0,0,0,0,0,0,0,0,0,0,0,0,0,0,0,0,0,0,0,0,0,0,0,0,0,0,0,0,0,0,0,0,0,0,0,0,0,0,0,0,0,0,0,0,0,0,0,0,0,0,0,0,0,0,0,0,0,0,0,0,0,0,0,0,0,0,0,0,0,0,0,0,0,0,0,0,0,0,0,0,0,0,0,0,0,0,0,0,0,0,0,0,0],"id":8,"left_children":[1,3,5,7,9,11,13,15,17,19,21,23,25,27,29,31,33,35,37,39,41,43,45,47,49,51,53,55,57,59,61,63,65,67,-1,69,71,73,75,77,79,81,83,85,87,89,91,93,95,97,99,101,103,-1,-1,-1,105,107,-1,-1,-1,109,111,-1,-1,-1,-1,-1,-1,-1,-1,-1,-1,-1,-1,-1,-1,-1,-1,-1,-1,-1,-1,-1,-1,-1,-1,-1,-1,-1,-1,-1,-1,-1,-1,-1,-1,-1,-1,-1,-1,-1,-1,-1,-1,-1,-1,-1,-1,-1,-1,-1,-1],"loss_changes":[7.296944E7,7.316282E6,6.058496E6,9.58084E5,1.0488064E6,4.339285E5,4.49076E5,1.21844E5,1.15863E5,1.4350275E5,1.0459391E5,5.92195E4,4.717525E4,2.5871E4,5.3784E4,1.5819E4,1.2146E4,1.59855E4,1.385275E4,1.911275E4,1.7137094E4,1.6095776E4,8.831156E3,4.8315E3,7.5638125E3,7.020375E3,2.715625E3,9.84E2,3.334E3,7.471E3,1.36E4,5.273E3,1.434E3,1.2935E3,0E0,1.26825E3,5.6975E2,4.56375E2,1.919875E3,3.141875E3,1.028125E3,2.2534062E3,4.3679688E2,2.4783848E3,1.2929784E3,2.2020352E3,5.6801367E3,5.2278125E2,6.310172E3,8.45E2,4.625E1,1.953E3,3.15375E2,0E0,0E0,0E0,8.570625E2,2.6805E3,0E0,0E0,0E0,7.851E3,3.3742E4,0E0,0E0,0E0,0E0,0E0,0E0,0E0,0E0,0E0,0E0,0E0,0E0,0E0,0E0,0E0,0E0,0E0,0E0,0E0,0E0,0E0,0E0,0E0,0E0,0E0,0E0,0E0,0E0,0E0,0E0,0E0,0E0,0E0,0E0,0E0,0E0,0E0,0E0,0E0,0E0,0E0,0E0,0E0,0E0,0E0,0E0,0E0,0E0,0E0,0E0],"parents":[2147483647,0,0,1,1,2,2,3,3,4,4,5,5,6,6,7,7,8,8,9,9,10,10,11,11,12,12,13,13,14,14,15,15,16,16,17,17,18,18,19,19,20,20,21,21,22,22,23,23,24,24,25,25,26,26,27,27,28,28,29,29,30,30,31,31,32,32,33,33,35,35,36,36,37,37,38,38,39,39,40,40,41,41,42,42,43,43,44,44,45,45,46,46,47,47,48,48,49,49,50,50,51,51,52,52,56,56,57,57,61,61,62,62],"right_children":[2,4,6,8,10,12,14,16,18,20,22,24,26,28,30,32,34,36,38,40,42,44,46,48,50,52,54,56,58,60,62,64,66,68,-1,70,72,74,76,78,80,82,84,86,88,90,92,94,96,98,100,102,104,-1,-1,-1,106,108,-1,-1,-1,110,112,-1,-1,-1,-1,-1,-1,-1,-1,-1,-1,-1,-1,-1,-1,-1,-1,-1,-1,-1,-1,-1,-1,-1,-1,-1,-1,-1,-1,-1,-1,-1,-1,-1,-1,-1,-1,-1,-1,-1,-1,-1,-1,-1,-1,-1,-1,-1,-1,-1,-1],"split_conditions":[7.0931473E0,5.506841E0,8.165745E0,4.477535E0,6.3872747E0,7.653545E0,8.60324E0,3.8686373E0,5.04916E0,5.9687567E0,6.774965E0,7.3644385E0,7.9392796E0,8.362123E0,9.111277E0,3.4473698E0,4.242357E0,4.7852893E0,5.2740297E0,5.7721996E0,6.190589E0,6.586415E0,7.0018053E0,7.2416925E0,7.519682E0,7.7939897E0,8.0517E0,8.283947E0,8.481253E0,8.765775E0,1.046427E1,3.010495E0,3.6886532E0,4.021785E0,-9.805529E0,4.6446548E0,4.8719664E0,5.1373396E0,5.4235525E0,5.64246E0,5.885315E0,6.052737E0,6.266885E0,6.486408E0,6.688986E0,6.8601446E0,7.0648685E0,7.122194E0,7.2722297E0,7.459289E0,7.6210394E0,7.7247443E0,7.8691597E0,9.447822E0,1.0312459E1,1.1369083E1,8.322342E0,8.44287E0,1.3918561E1,1.4768564E1,1.5828393E1,1.0147855E1,1.0959463E1,-1.3098957E1,-1.2163945E1,-1.173933E1,-1.127201E1,-1.0885542E1,-1.0429413E1,-9.2412815E0,-8.795667E0,-8.39674E0,-8.016042E0,-7.5529337E0,-7.1934776E0,-6.626273E0,-6.096364E0,-5.743302E0,-5.161049E0,-4.575847E0,-4.166142E0,-3.7154083E0,-3.1742795E0,-2.4900298E0,-2.2127879E0,-1.3509495E0,-7.4513376E-1,-1.22082874E-1,3.5002738E-1,1.0160679E0,1.606443E0,3.0125675E0,1.4178761E0,2.9421768E0,3.4311209E0,5.332765E0,3.7433562E0,5.001616E0,5.5334325E0,6.129964E0,6.565954E0,7.7352147E0,6.8679476E0,8.090077E0,8.657274E0,1.2745168E1,1.152753E1,1.3354984E1,1.1942973E1,1.6670818E1,1.55435505E1,1.8679491E1,1.6787811E1],"split_indices":[0,0,0,0,0,0,0,0,0,0,0,0,0,0,0,0,0,0,0,0,0,0,0,0,0,0,0,0,0,0,0,0,0,0,0,0,0,0,0,0,0,0,0,0,0,0,0,0,0,0,0,0,0,0,0,0,0,0,0,0,0,0,0,0,0,0,0,0,0,0,0,0,0,0,0,0,0,0,0,0,0,0,0,0,0,0,0,0,0,0,0,0,0,0,0,0,0,0,0,0,0,0,0,0,0,0,0,0,0,0,0,0,0],"split_type":[0,0,0,0,0,0,0,0,0,0,0,0,0,0,0,0,0,0,0,0,0,0,0,0,0,0,0,0,0,0,0,0,0,0,0,0,0,0,0,0,0,0,0,0,0,0,0,0,0,0,0,0,0,0,0,0,0,0,0,0,0,0,0,0,0,0,0,0,0,0,0,0,0,0,0,0,0,0,0,0,0,0,0,0,0,0,0,0,0,0,0,0,0,0,0,0,0,0,0,0,0,0,0,0,0,0,0,0,0,0,0,0,0],"sum_hessian":[7.8E4,5.0563E4,2.7437E4,3.0754E4,1.9809E4,9.753E3,1.7684E4,1.6769E4,1.3985E4,1.1883E4,7.926E3,5.485E3,4.268E3,3.36E3,1.4324E4,9.141E3,7.628E3,7.614E3,6.371E3,6.398E3,5.485E3,4.57E3,3.356E3,2.745E3,2.74E3,2.44E3,1.828E3,1.523E3,1.837E3,3.657E3,1.0667E4,4.266E3,4.875E3,4.579E3,3.049E3,3.964E3,3.65E3,3.055E3,3.316E3,3.686E3,2.712E3,3.046E3,2.439E3,2.441E3,2.129E3,2.445E3,9.11E2,1.521E3,1.224E3,1.522E3,1.218E3,1.217E3,1.223E3,9.2E2,9.08E2,9.19E2,6.04E2,9.16E2,9.21E2,1.215E3,2.442E3,5.489E3,5.178E3,9.12E2,3.354E3,2.743E3,2.132E3,1.838E3,2.741E3,2.129E3,1.835E3,1.216E3,2.434E3,1.227E3,1.828E3,2.128E3,1.188E3,1.861E3,1.825E3,1.536E3,1.176E3,1.22E3,1.826E3,9.55E2,1.484E3,1.218E3,1.223E3,1.215E3,9.14E2,9.19E2,1.526E3,6.06E2,3.05E2,3.03E2,1.218E3,3.09E2,9.15E2,9.17E2,6.05E2,9.18E2,3E2,6.15E2,6.02E2,6.17E2,6.06E2,3.01E2,3.03E2,6.1E2,3.06E2,4.564E3,9.25E2,1.217E3,3.961E3],"tree_param":{"num_deleted":"0","num_feature":"1","num_nodes":"113","size_leaf_vector":"1"}},{"base_weights":[4.506104E-3,-1.5771463E1,2.9077185E1,-2.228031E1,-4.862044E0,1.5067965E1,3.6802197E1,-2.5888094E1,-1.7719343E1,-9.069525E0,9.612092E-1,1.1161506E1,2.07711E1,2.9508104E1,3.8511E1,-2.764747E1,-2.3559574E1,-1.9499752E1,-1.5385639E1,-1.1117572E1,-6.5057135E0,-1.0709717E0,4.211051E0,8.307041E0,1.3241898E1,1.8792543E1,2.3070402E1,2.7653877E1,3.1706392E1,3.7055504E1,3.989997E1,-2.9502764E1,-2.7050549E1,-2.4268452E1,-6.686985E0,-2.067081E1,-1.8491617E1,-1.6364223E1,-1.4388938E1,-1.2362511E1,-1.0075968E1,-7.590308E0,-5.420675E0,-2.44585E0,3.0716664E-1,3.659799E0,6.4327874E0,7.99484E0,3.1411002E0,1.20360365E1,1.4677235E1,1.729764E1,1.938562E1,6.699329E0,7.3587646E0,7.9620476E0,8.624113E0,3.0467415E1,9.747516E0,3.5169903E1,1.1360284E1,3.9034462E1,4.1326492E1,-9.692027E0,-8.725608E0,-8.292083E0,-7.8478274E0,-7.461781E0,-7.1365204E0,-6.2915826E0,-6.016462E0,-5.7419887E0,-5.3993754E0,-5.036613E0,-4.7146482E0,-3.1207416E0,-4.449393E0,-3.8014724E0,-3.5160115E0,-3.152683E0,-2.7963805E0,-2.4309874E0,-2.1129735E0,-1.7256562E0,-1.5190691E0,-9.459962E-1,-5.217812E-1,-2.3476425E-1,2.0095187E-1,2.066449E0,9.579684E-1,2.878046E0,9.939121E-1,2.5748777E0,1.3486652E0,3.4111786E0,3.8073566E0,4.234599E0,4.513175E0,6.295702E0,4.0478454E0,5.644347E0,6.064385E0,9.886219E0,8.371747E0,1.0341641E1,1.0819391E1,1.2127887E1,5.7874317E0,1.2603465E1,1.0718001E1],"categories":[],"categories_nodes":[],"categories_segments":[],"categories_sizes":[],"default_left":[0,0,0,0,0,0,0,0,0,0,0,0,0,0,0,0,0,0,0,0,0,0,0,0,0,0,0,0,0,0,0,0,0,0,0,0,0,0,0,0,0,0,0,0,0,0,0,0,0,0,0,0,0,0,0,0,0,0,0,0,0,0,0,0,0,0,0,0,0,0,0,0,0,0,0,0,0,0,0,0,0,0,0,0,0,0,0,0,0,0,0,0,0,0,0,0,0,0,0,0,0,0,0,0,0,0,0,0,0,0,0],"id":9,"left_children":[1,3,5,7,9,11,13,15,17,19,21,23,25,27,29,31,33,35,37,39,41,43,45,47,49,51,53,55,57,59,61,63,65,67,-1,69,71,73,75,77,79,81,83,85,87,89,91,93,-1,95,97,99,101,-1,-1,-1,-1,103,-1,105,-1,107,109,-1,-1,-1,-1,-1,-1,-1,-1,-1,-1,-1,-1,-1,-1,-1,-1,-1,-1,-1,-1,-1,-1,-1,-1,-1,-1,-1,-1,-1,-1,-1,-1,-1,-1,-1,-1,-1,-1,-1,-1,-1,-1,-1,-1,-1,-1,-1,-1],"loss_changes":[3.5775596E7,3.590326E6,2.968824E6,5.20654E5,4.6298384E5,2.1707825E5,2.19292E5,7.1778E4,5.78275E4,5.7529062E4,5.235653E4,3.427925E4,1.7599875E4,1.282325E4,2.7484E4,1.03485E4,6.3135E3,8.98225E3,5.674375E3,7.7815625E3,5.6947188E3,9.24345E3,3.7119023E3,1.5669375E3,5.6181875E3,1.5584375E3,1.4248125E3,1.466125E3,4.9975E2,9.401E3,7.421E3,1.91525E3,3.2855E3,8.2275E2,0E0,2.58375E2,1.022875E3,5.760625E2,5.1538125E3,4.02125E2,9.885625E2,6.262656E2,2.5973438E2,1.2152334E3,9.6365045E2,3.6623184E3,5.933869E3,4.3652812E3,0E0,6.513125E2,1.0165625E2,8.360734E3,3.398125E2,0E0,0E0,0E0,0E0,2.9659375E3,0E0,8.3E1,0E0,1.24854E5,9.0335E3,0E0,0E0,0E0,0E0,0E0,0E0,0E0,0E0,0E0,0E0,0E0,0E0,0E0,0E0,0E0,0E0,0E0,0E0,0E0,0E0,0E0,0E0,0E0,0E0,0E0,0E0,0E0,0E0,0E0,0E0,0E0,0E0,0E0,0E0,0E0,0E0,0E0,0E0,0E0,0E0,0E0,0E0,0E0,0E0,0E0,0E0,0E0,0E0],"parents":[2147483647,0,0,1,1,2,2,3,3,4,4,5,5,6,6,7,7,8,8,9,9,10,10,11,11,12,12,13,13,14,14,15,15,16,16,17,17,18,18,19,19,20,20,21,21,22,22,23,23,24,24,25,25,26,26,27,27,28,28,29,29,30,30,31,31,32,32,33,33,35,35,36,36,37,37,38,38,39,39,40,40,41,41,42,42,43,43,44,44,45,45,46,46,47,47,49,49,50,50,51,51,52,52,57,57,59,59,61,61,62,62],"right_children":[2,4,6,8,10,12,14,16,18,20,22,24,26,28,30,32,34,36,38,40,42,44,46,48,50,52,54,56,58,60,62,64,66,68,-1,70,72,74,76,78,80,82,84,86,88,90,92,94,-1,96,98,100,102,-1,-1,-1,-1,104,-1,106,-1,108,110,-1,-1,-1,-1,-1,-1,-1,-1,-1,-1,-1,-1,-1,-1,-1,-1,-1,-1,-1,-1,-1,-1,-1,-1,-1,-1,-1,-1,-1,-1,-1,-1,-1,-1,-1,-1,-1,-1,-1,-1,-1,-1,-1,-1,-1,-1,-1,-1],"split_conditions":[7.0931473E0,5.571274E0,8.165745E0,4.5443277E0,6.3872747E0,7.688645E0,8.60324E0,3.9451199E0,5.1373396E0,6.011395E0,6.80607E0,7.3339195E0,7.9392796E0,8.404992E0,9.797689E0,3.2533848E0,4.335069E0,4.82758E0,5.36064E0,5.7721996E0,6.190589E0,6.586415E0,7.0349245E0,7.3037643E0,7.519682E0,7.760529E0,8.091043E0,8.283947E0,8.481253E0,8.888294E0,1.1607644E1,2.802635E0,3.6886532E0,4.1187053E0,-6.686985E0,4.7377996E0,4.95888E0,5.2740297E0,5.380675E0,5.706E0,5.9267697E0,6.10114E0,6.291044E0,6.486408E0,6.637E0,6.83285E0,7.0648685E0,7.2722297E0,3.1411002E0,7.4251E0,7.5865297E0,7.7247443E0,7.8691597E0,6.699329E0,7.3587646E0,7.9620476E0,8.624113E0,8.44287E0,9.747516E0,8.765775E0,1.1360284E1,1.1430528E1,1.4944234E1,-9.692027E0,-8.725608E0,-8.292083E0,-7.8478274E0,-7.461781E0,-7.1365204E0,-6.2915826E0,-6.016462E0,-5.7419887E0,-5.3993754E0,-5.036613E0,-4.7146482E0,-3.1207416E0,-4.449393E0,-3.8014724E0,-3.5160115E0,-3.152683E0,-2.7963805E0,-2.4309874E0,-2.1129735E0,-1.7256562E0,-1.5190691E0,-9.459962E-1,-5.217812E-1,-2.3476425E-1,2.0095187E-1,2.066449E0,9.579684E-1,2.878046E0,9.939121E-1,2.5748777E0,1.3486652E0,3.4111786E0,3.8073566E0,4.234599E0,4.513175E0,6.295702E0,4.0478454E0,5.644347E0,6.064385E0,9.886219E0,8.371747E0,1.0341641E1,1.0819391E1,1.2127887E1,5.7874317E0,1.2603465E1,1.0718001E1],"split_indices":[0,0,0,0,0,0,0,0,0,0,0,0,0,0,0,0,0,0,0,0,0,0,0,0,0,0,0,0,0,0,0,0,0,0,0,0,0,0,0,0,0,0,0,0,0,0,0,0,0,0,0,0,0,0,0,0,0,0,0,0,0,0,0,0,0,0,0,0,0,0,0,0,0,0,0,0,0,0,0,0,0,0,0,0,0,0,0,0,0,0,0,0,0,0,0,0,0,0,0,0,0,0,0,0,0,0,0,0,0,0,0],"split_type":[0,0,0,0,0,0,0,0,0,0,0,0,0,0,0,0,0,0,0,0,0,0,0,0,0,0,0,0,0,0,0,0,0,0,0,0,0,0,0,0,0,0,0,0,0,0,0,0,0,0,0,0,0,0,0,0,0,0,0,0,0,0,0,0,0,0,0,0,0,0,0,0,0,0,0,0,0,0,0,0,0,0,0,0,0,0,0,0,0,0,0,0,0,0,0,0,0,0,0,0,0,0,0,0,0,0,0,0,0,0,0],"sum_hessian":[7.8E4,5.0563E4,2.7437E4,3.1668E4,1.8895E4,9.753E3,1.7684E4,1.7679E4,1.3989E4,1.0969E4,7.926E3,5.79E3,3.963E3,3.36E3,1.4324E4,1.0064E4,7.615E3,7.931E3,6.058E3,6.096E3,4.873E3,4.877E3,3.049E3,2.443E3,3.347E3,2.135E3,1.828E3,1.83E3,1.53E3,7.008E3,7.316E3,2.438E3,7.626E3,4.875E3,2.74E3,3.66E3,4.271E3,3.049E3,3.009E3,2.772E3,3.324E3,2.434E3,2.439E3,2.441E3,2.436E3,2.445E3,6.04E2,2.139E3,3.04E2,1.824E3,1.523E3,6.15E2,1.52E3,1.224E3,6.04E2,9.19E2,9.11E2,6.09E2,9.21E2,2.123E3,4.885E3,4.571E3,2.745E3,3.06E2,2.132E3,4.571E3,3.055E3,2.136E3,2.739E3,2.436E3,1.224E3,1.83E3,2.441E3,1.828E3,1.221E3,3.03E2,2.706E3,1.859E3,9.13E2,2.104E3,1.22E3,1.249E3,1.185E3,1.257E3,1.182E3,1.218E3,1.223E3,6.08E2,1.828E3,3.07E2,2.138E3,2.99E2,3.05E2,1.83E3,3.09E2,9.14E2,9.1E2,6.17E2,9.06E2,3.1E2,3.05E2,9.14E2,6.06E2,3.03E2,3.06E2,1.215E3,9.08E2,4.269E3,3.02E2,2.44E3,3.05E2],"tree_param":{"num_deleted":"0","num_feature":"1","num_nodes":"111","size_leaf_vector":"1"}},{"base_weights":[3.98963E-3,-1.0950721E1,2.053958E1,-1.5902552E1,-3.7304955E0,1.0986851E1,2.5903252E1,-1.8479647E1,-1.316155E1,-6.726412E0,8.078791E-1,8.009952E0,1.4808536E1,2.1844194E1,2.7222715E1,-1.9639273E1,-1.7175018E1,-1.4356649E1,-1.14852295E1,-8.26774E0,-4.7638273E0,-7.4998283E-1,3.0740416E0,6.407448E0,9.613626E0,1.3344962E1,1.6754274E1,2.0121094E1,2.3553041E1,2.6498182E1,2.8327131E1,-2.0784735E1,-1.9233526E1,-1.7728483E1,-1.6512638E1,-1.5328563E1,-1.3725624E1,-1.2025231E1,-1.0818023E1,-9.098921E0,-7.3468637E0,-5.6251316E0,-3.87495E0,-1.7126979E0,2.1501513E-1,2.4178123E0,4.226799E0,1.6308044E0,7.1772323E0,8.772205E0,1.0279791E1,1.276175E1,4.2919908E0,4.7956276E0,5.252696E0,5.793467E0,2.1172647E1,6.6434116E0,7.2307253E0,2.680205E1,7.251063E0,9.444868E0,2.7349838E1,-6.7938895E0,-6.138484E0,-5.861139E0,-5.6311426E0,-5.42506E0,-5.2242956E0,-5.0238705E0,-4.8277016E0,-4.656222E0,-4.439518E0,-4.076441E0,-4.768668E0,-3.702181E0,-3.5264528E0,-2.5721278E0,-3.3263714E0,-2.0977204E0,-2.7888856E0,-2.332992E0,-2.0447862E0,-1.7760171E0,-1.5072224E0,-1.295516E0,-1.0982069E0,-3.5337436E-1,-7.8351605E-1,-8.037031E-2,2.0861527E-1,1.4485214E0,6.0336554E-1,1.5396284E0,9.952609E-1,2.968121E0,1.9444981E0,2.5666385E0,2.8187168E0,2.9965887E0,3.211313E0,4.4130783E0,3.6763737E0,6.584275E0,5.868416E0,7.8968773E0,8.998614E0,7.1238503E0,8.681097E0],"categories":[],"categories_nodes":[],"categories_segments":[],"categories_sizes":[],"default_left":[0,0,0,0,0,0,0,0,0,0,0,0,0,0,0,0,0,0,0,0,0,0,0,0,0,0,0,0,0,0,0,0,0,0,0,0,0,0,0,0,0,0,0,0,0,0,0,0,0,0,0,0,0,0,0,0,0,0,0,0,0,0,0,0,0,0,0,0,0,0,0,0,0,0,0,0,0,0,0,0,0,0,0,0,0,0,0,0,0,0,0,0,0,0,0,0,0,0,0,0,0,0,0,0,0,0,0,0,0],"id":10,"left_children":[1,3,5,7,9,11,13,15,17,19,21,23,25,27,29,31,33,35,37,39,41,43,45,47,49,51,53,55,57,59,61,63,65,67,69,71,73,75,77,79,81,83,85,87,89,91,93,-1,95,97,99,101,-1,-1,-1,-1,103,-1,-1,105,-1,-1,107,-1,-1,-1,-1,-1,-1,-1,-1,-1,-1,-1,-1,-1,-1,-1,-1,-1,-1,-1,-1,-1,-1,-1,-1,-1,-1,-1,-1,-1,-1,-1,-1,-1,-1,-1,-1,-1,-1,-1,-1,-1,-1,-1,-1,-1,-1],"loss_changes":[1.7547442E7,1.818606E6,1.390051E6,2.128935E5,2.8138684E5,1.10907375E5,9.2473E4,2.3186E4,2.91345E4,3.7670125E4,2.9057236E4,1.4042E4,1.19419375E4,1.209325E4,9.74E3,3.423E3,2.39275E3,5.0235E3,2.0648125E3,5.2765E3,4.178242E3,4.532118E3,2.5262344E3,2.0159219E3,1.4462188E3,1.187625E3,7.8196875E2,1.406E3,1.119625E3,4.963E3,1.51115E4,8.2325E2,4.89E2,1.28625E2,5.93125E1,1.11625E2,1.3305625E3,1.4125E2,1.5614688E3,1.45875E3,7.038281E2,4.6377344E2,2.4100781E2,1.1709937E3,5.6551654E2,2.086792E3,9.8310156E2,0E0,2.8268438E3,8.422656E1,8.1484375E1,1.3317188E3,0E0,0E0,0E0,0E0,7.156875E2,0E0,0E0,9.931E3,0E0,0E0,2.197375E4,0E0,0E0,0E0,0E0,0E0,0E0,0E0,0E0,0E0,0E0,0E0,0E0,0E0,0E0,0E0,0E0,0E0,0E0,0E0,0E0,0E0,0E0,0E0,0E0,0E0,0E0,0E0,0E0,0E0,0E0,0E0,0E0,0E0,0E0,0E0,0E0,0E0,0E0,0E0,0E0,0E0,0E0,0E0,0E0,0E0,0E0],"parents":[2147483647,0,0,1,1,2,2,3,3,4,4,5,5,6,6,7,7,8,8,9,9,10,10,11,11,12,12,13,13,14,14,15,15,16,16,17,17,18,18,19,19,20,20,21,21,22,22,23,23,24,24,25,25,26,26,27,27,28,28,29,29,30,30,31,31,32,32,33,33,34,34,35,35,36,36,37,37,38,38,39,39,40,40,41,41,42,42,43,43,44,44,45,45,46,46,48,48,49,49,50,50,51,51,56,56,59,59,62,62],"right_children":[2,4,6,8,10,12,14,16,18,20,22,24,26,28,30,32,34,36,38,40,42,44,46,48,50,52,54,56,58,60,62,64,66,68,70,72,74,76,78,80,82,84,86,88,90,92,94,-1,96,98,100,102,-1,-1,-1,-1,104,-1,-1,106,-1,-1,108,-1,-1,-1,-1,-1,-1,-1,-1,-1,-1,-1,-1,-1,-1,-1,-1,-1,-1,-1,-1,-1,-1,-1,-1,-1,-1,-1,-1,-1,-1,-1,-1,-1,-1,-1,-1,-1,-1,-1,-1,-1,-1,-1,-1,-1,-1],"split_conditions":[7.122194E0,5.4682446E0,8.206882E0,4.382783E0,6.3872747E0,7.688645E0,8.765775E0,3.7880418E0,5.02728E0,5.9687567E0,6.80607E0,7.3928E0,7.975777E0,8.481253E0,1.046427E1,3.21451E0,4.1187053E0,4.6446548E0,5.2740297E0,5.7286663E0,6.1701097E0,6.586415E0,7.0018053E0,7.2416925E0,7.519682E0,7.8691597E0,8.091043E0,8.362123E0,8.560324E0,1.0147855E1,1.0959463E1,2.802635E0,3.5829122E0,3.9451199E0,4.289335E0,4.5705748E0,5.0044847E0,5.1373396E0,5.2956E0,5.49071E0,5.862885E0,6.10114E0,6.2390947E0,6.512429E0,6.688986E0,6.83285E0,7.0648685E0,1.6308044E0,7.2722297E0,7.4909096E0,7.6210394E0,7.7247443E0,4.2919908E0,4.7956276E0,5.252696E0,5.793467E0,8.44287E0,6.6434116E0,7.2307253E0,9.881077E0,7.251063E0,9.444868E0,1.1607644E1,-6.7938895E0,-6.138484E0,-5.861139E0,-5.6311426E0,-5.42506E0,-5.2242956E0,-5.0238705E0,-4.8277016E0,-4.656222E0,-4.439518E0,-4.076441E0,-4.768668E0,-3.702181E0,-3.5264528E0,-2.5721278E0,-3.3263714E0,-2.0977204E0,-2.7888856E0,-2.332992E0,-2.0447862E0,-1.7760171E0,-1.5072224E0,-1.295516E0,-1.0982069E0,-3.5337436E-1,-7.8351605E-1,-8.037031E-2,2.0861527E-1,1.4485214E0,6.0336554E-1,1.5396284E0,9.952609E-1,2.968121E0,1.9444981E0,2.5666385E0,2.8187168E0,2.9965887E0,3.211313E0,4.4130783E0,3.6763737E0,6.584275E0,5.868416E0,7.8968773E0,8.998614E0,7.1238503E0,8.681097E0],"split_indices":[0,0,0,0,0,0,0,0,0,0,0,0,0,0,0,0,0,0,0,0,0,0,0,0,0,0,0,0,0,0,0,0,0,0,0,0,0,0,0,0,0,0,0,0,0,0,0,0,0,0,0,0,0,0,0,0,0,0,0,0,0,0,0,0,0,0,0,0,0,0,0,0,0,0,0,0,0,0,0,0,0,0,0,0,0,0,0,0,0,0,0,0,0,0,0,0,0,0,0,0,0,0,0,0,0,0,0,0,0],"split_type":[0,0,0,0,0,0,0,0,0,0,0,0,0,0,0,0,0,0,0,0,0,0,0,0,0,0,0,0,0,0,0,0,0,0,0,0,0,0,0,0,0,0,0,0,0,0,0,0,0,0,0,0,0,0,0,0,0,0,0,0,0,0,0,0,0,0,0,0,0,0,0,0,0,0,0,0,0,0,0,0,0,0,0,0,0,0,0,0,0,0,0,0,0,0,0,0,0,0,0,0,0,0,0,0,0,0,0,0,0],"sum_hessian":[7.8E4,5.0866E4,2.7134E4,3.0172E4,2.0694E4,9.758E3,1.7376E4,1.5548E4,1.4624E4,1.2465E4,8.229E3,5.487E3,4.271E3,4.267E3,1.3109E4,8.224E3,7.324E3,8.533E3,6.091E3,6.98E3,5.485E3,4.877E3,3.352E3,2.747E3,2.74E3,2.442E3,1.829E3,2.131E3,2.136E3,7.931E3,5.178E3,2.138E3,6.086E3,3.976E3,3.348E3,3.35E3,5.183E3,3.357E3,2.734E3,3.664E3,3.316E3,2.783E3,2.702E3,2.441E3,2.436E3,2.138E3,1.214E3,1.218E3,1.529E3,1.217E3,1.523E3,1.529E3,9.13E2,9.17E2,9.12E2,1.215E3,9.16E2,6.11E2,1.525E3,7.006E3,9.25E2,1.217E3,3.961E3,3.06E2,1.832E3,3.651E3,2.435E3,1.84E3,2.136E3,2.127E3,1.221E3,2.438E3,9.12E2,4.881E3,3.02E2,1.529E3,1.828E3,2.97E2,2.437E3,3.17E2,3.347E3,1.825E3,1.491E3,1.861E3,9.22E2,8.74E2,1.828E3,1.532E3,9.09E2,1.215E3,1.221E3,3.07E2,1.831E3,6.06E2,6.08E2,3.09E2,1.22E3,9.14E2,3.03E2,9.18E2,6.05E2,3.1E2,1.219E3,6.1E2,3.06E2,6.1E3,9.06E2,1.216E3,2.745E3],"tree_param":{"num_deleted":"0","num_feature":"1","num_nodes":"109","size_leaf_vector":"1"}},{"base_weights":[3.2362102E-3,-7.865914E0,1.4023018E1,-1.122596E1,-2.9941695E0,7.15341E0,1.8045713E1,-1.3015764E1,-9.397214E0,-4.740558E0,3.5975602E-1,5.2793713E0,1.0174934E1,1.4261825E1,1.8833319E1,-1.3721114E1,-1.2072676E1,-1.0451253E1,-8.425927E0,-5.768028E0,-3.1236465E0,-2.82514E-1,2.1634493E0,3.6948066E0,6.4685187E0,9.346531E0,1.1497939E1,1.3534847E1,1.5340312E1,1.7505491E1,1.9325445E1,-4.55616E0,-1.3543839E1,-3.7444327E0,-1.1764117E1,-1.0830166E1,-1.0035355E1,-8.905411E0,-8.046683E0,-6.6607566E0,-5.238204E0,-3.693492E0,-2.6232157E0,-8.8032794E-1,3.8154012E-1,2.0838346E0,1.2086278E0,4.009253E0,3.6388832E-1,5.8313823E0,7.1017656E0,8.083998E0,9.766867E0,3.2876177E0,3.5548534E0,3.8941975E0,1.4079057E1,4.9613357E0,1.49270525E1,5.0668616E0,1.802322E1,1.9043917E1,2.0670238E1,-4.1815877E0,-3.9692318E0,-3.4782162E0,-4.0798793E0,-3.31367E0,-3.1824734E0,-3.0745559E0,-2.8956833E0,-2.2420592E0,-2.7138445E0,-2.3320162E0,-2.9060133E0,-1.9503019E0,-2.4310384E0,-1.6750323E0,-1.4207236E0,-1.1699058E0,-1.0419172E0,-8.504217E-1,-7.339976E-1,-4.8888046E-1,-1.5598032E-1,2.3797123E-1,-7.480545E-1,-9.227728E-1,6.8337035E-1,1.0742185E0,2.0805516E0,1.6204125E0,1.7741166E0,1.9836911E0,2.2021413E0,3.0934098E0,1.7381454E0,2.8511992E0,3.005802E0,4.6233344E0,4.019285E0,4.113628E0,4.6536384E0,5.529649E0,4.688919E0,5.8490973E0,4.8552036E0,6.4537797E0,4.9172683E0],"categories":[],"categories_nodes":[],"categories_segments":[],"categories_sizes":[],"default_left":[0,0,0,0,0,0,0,0,0,0,0,0,0,0,0,0,0,0,0,0,0,0,0,0,0,0,0,0,0,0,0,0,0,0,0,0,0,0,0,0,0,0,0,0,0,0,0,0,0,0,0,0,0,0,0,0,0,0,0,0,0,0,0,0,0,0,0,0,0,0,0,0,0,0,0,0,0,0,0,0,0,0,0,0,0,0,0,0,0,0,0,0,0,0,0,0,0,0,0,0,0,0,0,0,0,0,0,0,0],"id":11,"left_children":[1,3,5,7,9,11,13,15,17,19,21,23,25,27,29,31,33,35,37,39,41,43,45,47,49,51,53,55,57,59,61,-1,63,-1,65,67,69,71,73,75,77,79,81,83,85,-1,87,89,-1,91,93,95,97,-1,-1,-1,99,-1,101,-1,103,105,107,-1,-1,-1,-1,-1,-1,-1,-1,-1,-1,-1,-1,-1,-1,-1,-1,-1,-1,-1,-1,-1,-1,-1,-1,-1,-1,-1,-1,-1,-1,-1,-1,-1,-1,-1,-1,-1,-1,-1,-1,-1,-1,-1,-1,-1,-1],"loss_changes":[8.605475E6,8.17776E5,7.74793E5,9.665325E4,1.19454625E5,5.8598E4,5.24365E4,9.7725E3,1.488775E4,2.2262062E4,8.0912827E3,1.2026094E4,4.2369688E3,2.1845E3,9.2255E3,2.014E3,6.605625E2,9.96125E2,1.313625E3,3.8431562E3,1.4768945E3,2.0451838E3,8.366735E3,2.1365742E3,1.4320312E3,1.2175312E3,1.5867188E2,3.6946875E2,3.5740625E2,9.61E2,3.64475E3,0E0,7.58375E2,0E0,9.8640625E2,5.75625E1,1.7515625E2,6.085E2,1.835875E3,6.502656E2,8.669219E2,9.713281E1,9.684961E1,7.312134E2,2.8912734E3,0E0,7.016459E3,3.0282422E3,0E0,3.2710938E1,1.6491406E2,3.0825195E3,2.609375E1,0E0,0E0,0E0,6.21375E2,0E0,4.3984375E2,0E0,1.8075E3,1.113125E4,6.2620625E3,0E0,0E0,0E0,0E0,0E0,0E0,0E0,0E0,0E0,0E0,0E0,0E0,0E0,0E0,0E0,0E0,0E0,0E0,0E0,0E0,0E0,0E0,0E0,0E0,0E0,0E0,0E0,0E0,0E0,0E0,0E0,0E0,0E0,0E0,0E0,0E0,0E0,0E0,0E0,0E0,0E0,0E0,0E0,0E0,0E0,0E0],"parents":[2147483647,0,0,1,1,2,2,3,3,4,4,5,5,6,6,7,7,8,8,9,9,10,10,11,11,12,12,13,13,14,14,15,15,16,16,17,17,18,18,19,19,20,20,21,21,22,22,23,23,24,24,25,25,26,26,27,27,28,28,29,29,30,30,32,32,34,34,35,35,36,36,37,37,38,38,39,39,40,40,41,41,42,42,43,43,44,44,46,46,47,47,49,49,50,50,51,51,52,52,56,56,58,58,60,60,61,61,62,62],"right_children":[2,4,6,8,10,12,14,16,18,20,22,24,26,28,30,32,34,36,38,40,42,44,46,48,50,52,54,56,58,60,62,-1,64,-1,66,68,70,72,74,76,78,80,82,84,86,-1,88,90,-1,92,94,96,98,-1,-1,-1,100,-1,102,-1,104,106,108,-1,-1,-1,-1,-1,-1,-1,-1,-1,-1,-1,-1,-1,-1,-1,-1,-1,-1,-1,-1,-1,-1,-1,-1,-1,-1,-1,-1,-1,-1,-1,-1,-1,-1,-1,-1,-1,-1,-1,-1,-1,-1,-1,-1,-1,-1],"split_conditions":[7.0349245E0,5.4235525E0,8.165745E0,4.335069E0,6.4155293E0,7.688645E0,8.560324E0,3.8178053E0,4.8719664E0,6.011395E0,6.8601446E0,7.3037643E0,7.975777E0,8.404992E0,9.111277E0,3.010495E0,4.0479097E0,4.6202207E0,5.114989E0,5.64246E0,6.190589E0,6.637E0,6.885916E0,7.2722297E0,7.4909096E0,7.760529E0,8.0517E0,8.283947E0,8.44287E0,8.803985E0,1.2284675E1,-4.55616E0,3.4473698E0,-3.7444327E0,4.3124866E0,4.477535E0,4.7852893E0,4.8936896E0,5.380675E0,5.61995E0,5.862885E0,6.10114E0,6.291044E0,6.486408E0,6.83285E0,2.0838346E0,6.915531E0,7.2416925E0,3.6388832E-1,7.3339195E0,7.5525494E0,7.7247443E0,7.8691597E0,3.2876177E0,3.5548534E0,3.8941975E0,8.322342E0,4.9613357E0,8.481253E0,5.0668616E0,9.064057E0,1.1430528E1,1.4944234E1,-4.1815877E0,-3.9692318E0,-3.4782162E0,-4.0798793E0,-3.31367E0,-3.1824734E0,-3.0745559E0,-2.8956833E0,-2.2420592E0,-2.7138445E0,-2.3320162E0,-2.9060133E0,-1.9503019E0,-2.4310384E0,-1.6750323E0,-1.4207236E0,-1.1699058E0,-1.0419172E0,-8.504217E-1,-7.339976E-1,-4.8888046E-1,-1.5598032E-1,2.3797123E-1,-7.480545E-1,-9.227728E-1,6.8337035E-1,1.0742185E0,2.0805516E0,1.6204125E0,1.7741166E0,1.9836911E0,2.2021413E0,3.0934098E0,1.7381454E0,2.8511992E0,3.005802E0,4.6233344E0,4.019285E0,4.113628E0,4.6536384E0,5.529649E0,4.688919E0,5.8490973E0,4.8552036E0,6.4537797E0,4.9172683E0],"split_indices":[0,0,0,0,0,0,0,0,0,0,0,0,0,0,0,0,0,0,0,0,0,0,0,0,0,0,0,0,0,0,0,0,0,0,0,0,0,0,0,0,0,0,0,0,0,0,0,0,0,0,0,0,0,0,0,0,0,0,0,0,0,0,0,0,0,0,0,0,0,0,0,0,0,0,0,0,0,0,0,0,0,0,0,0,0,0,0,0,0,0,0,0,0,0,0,0,0,0,0,0,0,0,0,0,0,0,0,0,0],"split_type":[0,0,0,0,0,0,0,0,0,0,0,0,0,0,0,0,0,0,0,0,0,0,0,0,0,0,0,0,0,0,0,0,0,0,0,0,0,0,0,0,0,0,0,0,0,0,0,0,0,0,0,0,0,0,0,0,0,0,0,0,0,0,0,0,0,0,0,0,0,0,0,0,0,0,0,0,0,0,0,0,0,0,0,0,0,0,0,0,0,0,0,0,0,0,0,0,0,0,0,0,0,0,0,0,0,0,0,0,0],"sum_hessian":[7.8E4,4.9959E4,2.8041E4,2.9566E4,2.0393E4,1.0357E4,1.7684E4,1.4939E4,1.4627E4,1.341E4,6.983E3,6.394E3,3.963E3,3.05E3,1.4634E4,8.539E3,6.4E3,7.01E3,7.617E3,8.198E3,5.212E3,5.15E3,1.833E3,2.743E3,3.651E3,2.442E3,1.521E3,1.83E3,1.22E3,3.967E3,1.0667E4,9.12E2,7.627E3,2.736E3,3.664E3,3.655E3,3.355E3,3.354E3,4.263E3,3.049E3,5.149E3,2.434E3,2.778E3,2.71E3,2.44E3,3.04E2,1.529E3,2.434E3,3.09E2,1.825E3,1.826E3,6.15E2,1.827E3,6.13E2,9.08E2,9.19E2,9.11E2,3.03E2,9.17E2,1.827E3,2.14E3,8.833E3,1.834E3,3.354E3,4.273E3,3.36E3,3.04E2,1.83E3,1.825E3,2.139E3,1.216E3,3.05E2,3.049E3,3.659E3,6.04E2,2.75E3,2.99E2,3.046E3,2.103E3,1.249E3,1.185E3,1.257E3,1.521E3,8.79E2,1.831E3,2.135E3,3.05E2,3.05E2,1.224E3,2.125E3,3.09E2,3.04E2,1.521E3,6.08E2,1.218E3,3.1E2,3.05E2,9.14E2,9.13E2,3.01E2,6.1E2,3.06E2,6.11E2,1.822E3,3.18E2,7.62E3,1.213E3,1.529E3,3.05E2],"tree_param":{"num_deleted":"0","num_feature":"1","num_nodes":"109","size_leaf_vector":"1"}},{"base_weights":[2.7114877E-3,-5.3698044E0,1.00739765E1,-7.747878E0,-1.7332E0,5.2795486E0,1.2635586E1,-8.962629E0,-6.2907686E0,-3.159413E0,4.761948E-1,3.9442544E0,7.126878E0,9.991891E0,1.3185861E1,-9.563774E0,-8.241091E0,-7.069042E0,-5.633239E0,-3.8817916E0,-2.187275E0,-3.2040018E-1,1.5544138E0,2.7775586E0,4.5300364E0,6.4389544E0,7.9263735E0,9.335962E0,3.1918693E0,1.2686583E1,1.409501E1,-1.0083591E1,-9.301227E0,-8.577168E0,-7.8106265E0,-7.293313E0,-6.7012525E0,-5.5501795E0,-2.3694232E0,-4.278468E0,-3.4407604E0,-2.5863376E0,-1.8368235E0,-1.1412655E0,-1.2294611E-1,9.442071E-1,1.3928312E0,3.1667535E0,2.55073E-1,4.0012655E0,4.9064183E0,5.666648E0,2.024251E0,2.2651136E0,2.489584E0,9.521714E0,2.5677562E0,1.2829042E1,1.0635383E1,4.8604507E0,1.3443873E1,-2.9763932E0,-3.440733E0,-2.445375E0,-2.8077674E0,-2.5357933E0,-3.0492852E0,-2.2449582E0,-2.398314E0,-2.0071177E0,-2.2200286E0,-1.6652621E0,-2.057311E0,-1.7608525E0,-1.3768535E0,-1.3883697E0,-1.2286112E0,-9.9648505E-1,-1.4265921E0,-8.1921005E-1,-7.2960126E-1,-3.8759142E-1,-5.7119E-1,-1.7419389E-1,-4.15745E-1,9.960933E-1,-1.3411961E-1,-5.243739E-1,5.2288496E-1,8.1996506E-1,1.4583952E0,1.1358796E0,1.2155209E0,1.3764924E0,1.5420386E0,2.1683784E0,1.2184016E0,2.7272177E0,3.2409399E0,3.7749562E0,4.3092403E0,2.8338141E0,3.5474827E0,3.3091323E0,4.3525763E0],"categories":[],"categories_nodes":[],"categories_segments":[],"categories_sizes":[],"default_left":[0,0,0,0,0,0,0,0,0,0,0,0,0,0,0,0,0,0,0,0,0,0,0,0,0,0,0,0,0,0,0,0,0,0,0,0,0,0,0,0,0,0,0,0,0,0,0,0,0,0,0,0,0,0,0,0,0,0,0,0,0,0,0,0,0,0,0,0,0,0,0,0,0,0,0,0,0,0,0,0,0,0,0,0,0,0,0,0,0,0,0,0,0,0,0,0,0,0,0,0,0,0,0,0,0],"id":12,"left_children":[1,3,5,7,9,11,13,15,17,19,21,23,25,27,29,31,33,35,37,39,41,43,45,47,49,51,53,55,-1,57,59,61,63,65,67,69,71,73,-1,75,77,79,81,83,85,-1,87,89,-1,91,93,95,-1,-1,-1,97,-1,99,101,-1,103,-1,-1,-1,-1,-1,-1,-1,-1,-1,-1,-1,-1,-1,-1,-1,-1,-1,-1,-1,-1,-1,-1,-1,-1,-1,-1,-1,-1,-1,-1,-1,-1,-1,-1,-1,-1,-1,-1,-1,-1,-1,-1,-1,-1],"loss_changes":[4.2205345E6,4.3989025E5,3.3319075E5,5.438075E4,6.337893E4,2.3284938E4,2.559575E4,7.195125E3,7.1173125E3,8.575133E3,6.7781084E3,3.738086E3,2.129125E3,1.1968125E3,6.464E3,1.153875E3,1.0366875E3,4.7909375E2,1.3832344E3,1.2118281E3,7.242988E2,7.355553E2,8.586509E2,1.3752441E3,7.071953E2,4.7076562E2,1.9332031E2,1.3839062E2,0E0,2.627E3,6.8858125E3,5.7334375E2,3.296875E2,7.588125E2,1.4209375E2,2.0576562E2,4.0053906E2,2.2189219E3,0E0,2.169375E2,5.0496875E2,4.761133E1,9.920508E1,1.1984326E2,4.0861392E3,0E0,3.3525269E3,1.1092656E3,0E0,1.1953125E0,1.3469531E2,1.5145488E3,0E0,0E0,0E0,5.76125E2,0E0,3.154875E3,7.6546094E2,0E0,1.00206875E4,0E0,0E0,0E0,0E0,0E0,0E0,0E0,0E0,0E0,0E0,0E0,0E0,0E0,0E0,0E0,0E0,0E0,0E0,0E0,0E0,0E0,0E0,0E0,0E0,0E0,0E0,0E0,0E0,0E0,0E0,0E0,0E0,0E0,0E0,0E0,0E0,0E0,0E0,0E0,0E0,0E0,0E0,0E0,0E0],"parents":[2147483647,0,0,1,1,2,2,3,3,4,4,5,5,6,6,7,7,8,8,9,9,10,10,11,11,12,12,13,13,14,14,15,15,16,16,17,17,18,18,19,19,20,20,21,21,22,22,23,23,24,24,25,25,26,26,27,27,29,29,30,30,31,31,32,32,33,33,34,34,35,35,36,36,37,37,39,39,40,40,41,41,42,42,43,43,44,44,46,46,47,47,49,49,50,50,51,51,55,55,57,57,58,58,60,60],"right_children":[2,4,6,8,10,12,14,16,18,20,22,24,26,28,30,32,34,36,38,40,42,44,46,48,50,52,54,56,-1,58,60,62,64,66,68,70,72,74,-1,76,78,80,82,84,86,-1,88,90,-1,92,94,96,-1,-1,-1,98,-1,100,102,-1,104,-1,-1,-1,-1,-1,-1,-1,-1,-1,-1,-1,-1,-1,-1,-1,-1,-1,-1,-1,-1,-1,-1,-1,-1,-1,-1,-1,-1,-1,-1,-1,-1,-1,-1,-1,-1,-1,-1,-1,-1,-1,-1,-1,-1],"split_conditions":[7.122194E0,5.506841E0,8.165745E0,4.477535E0,6.4155293E0,7.688645E0,8.560324E0,3.8686373E0,4.95888E0,6.011395E0,6.80607E0,7.3037643E0,7.9392796E0,8.362123E0,1.046427E1,3.3216705E0,4.2193747E0,4.7852893E0,5.49071E0,5.7721996E0,6.190589E0,6.486408E0,6.83285E0,7.2722297E0,7.459289E0,7.760529E0,8.0517E0,8.322342E0,3.1918693E0,1.0257119E1,1.0959463E1,3.2884998E0,3.3542366E0,4.19525E0,4.3124866E0,4.521049E0,4.8057365E0,5.36064E0,-2.3694232E0,5.596333E0,5.99227E0,6.10114E0,6.2141647E0,6.4348683E0,6.512429E0,9.442071E-1,6.8601446E0,7.2416925E0,2.55073E-1,7.3339195E0,7.5525494E0,7.7247443E0,2.024251E0,2.2651136E0,2.489584E0,8.283947E0,2.5677562E0,9.881077E0,1.0356947E1,4.8604507E0,1.1607644E1,-2.9763932E0,-3.440733E0,-2.445375E0,-2.8077674E0,-2.5357933E0,-3.0492852E0,-2.2449582E0,-2.398314E0,-2.0071177E0,-2.2200286E0,-1.6652621E0,-2.057311E0,-1.7608525E0,-1.3768535E0,-1.3883697E0,-1.2286112E0,-9.9648505E-1,-1.4265921E0,-8.1921005E-1,-7.2960126E-1,-3.8759142E-1,-5.7119E-1,-1.7419389E-1,-4.15745E-1,9.960933E-1,-1.3411961E-1,-5.243739E-1,5.2288496E-1,8.1996506E-1,1.4583952E0,1.1358796E0,1.2155209E0,1.3764924E0,1.5420386E0,2.1683784E0,1.2184016E0,2.7272177E0,3.2409399E0,3.7749562E0,4.3092403E0,2.8338141E0,3.5474827E0,3.3091323E0,4.3525763E0],"split_indices":[0,0,0,0,0,0,0,0,0,0,0,0,0,0,0,0,0,0,0,0,0,0,0,0,0,0,0,0,0,0,0,0,0,0,0,0,0,0,0,0,0,0,0,0,0,0,0,0,0,0,0,0,0,0,0,0,0,0,0,0,0,0,0,0,0,0,0,0,0,0,0,0,0,0,0,0,0,0,0,0,0,0,0,0,0,0,0,0,0,0,0,0,0,0,0,0,0,0,0,0,0,0,0,0,0],"split_type":[0,0,0,0,0,0,0,0,0,0,0,0,0,0,0,0,0,0,0,0,0,0,0,0,0,0,0,0,0,0,0,0,0,0,0,0,0,0,0,0,0,0,0,0,0,0,0,0,0,0,0,0,0,0,0,0,0,0,0,0,0,0,0,0,0,0,0,0,0,0,0,0,0,0,0,0,0,0,0,0,0,0,0,0,0,0,0,0,0,0,0,0,0,0,0,0,0,0,0,0,0,0,0,0,0],"sum_hessian":[7.8E4,5.0866E4,2.7134E4,3.0754E4,2.0112E4,9.45E3,1.7684E4,1.6769E4,1.3985E4,1.2222E4,7.89E3,5.487E3,3.963E3,3.05E3,1.4634E4,9.141E3,7.628E3,6.4E3,7.585E3,7.01E3,5.212E3,4.538E3,3.352E3,1.836E3,3.651E3,2.135E3,1.828E3,1.523E3,1.527E3,9.456E3,5.178E3,3.055E3,6.086E3,4.273E3,3.355E3,3.964E3,2.436E3,7.32E3,2.65E2,3.686E3,3.324E3,2.434E3,2.778E3,8.79E2,3.659E3,3.07E2,3.045E3,1.527E3,3.09E2,1.523E3,2.128E3,6.15E2,1.52E3,9.2E2,9.08E2,1.22E3,3.03E2,8.837E3,6.19E2,1.217E3,3.961E3,2.742E3,3.13E2,2.99E2,5.787E3,3.968E3,3.05E2,1.221E3,2.134E3,6.06E2,3.358E3,2.96E2,2.14E3,5.49E3,1.83E3,1.259E3,2.427E3,3.051E3,2.73E2,1.249E3,1.185E3,3.07E2,2.471E3,2.68E2,6.11E2,3.14E2,3.345E3,3.05E2,2.74E3,1.218E3,3.09E2,3.04E2,1.219E3,9.1E2,1.218E3,3.1E2,3.05E2,9.19E2,3.01E2,7.625E3,1.212E3,3.14E2,3.05E2,1.216E3,2.745E3],"tree_param":{"num_deleted":"0","num_feature":"1","num_nodes":"105","size_leaf_vector":"1"}},{"base_weights":[2.0969345E-3,-3.8584404E0,6.880081E0,-5.5074034E0,-1.4676024E0,3.5209236E0,8.847131E0,-6.431607E0,-4.6381454E0,-2.4641938E0,-7.4193865E-2,2.4879434E0,4.829182E0,7.494673E0,9.454247E0,-6.8421435E0,-6.0375233E0,-5.115655E0,-4.0766535E0,-2.9346082E0,-1.7953243E0,-7.6050586E-1,6.053912E-1,1.8579046E0,3.0545135E0,3.985965E0,5.2469983E0,6.619579E0,7.931126E0,9.249008E0,1.0157633E1,-2.5099561E0,-6.7713165E0,-1.2433243E0,-6.119253E0,-1.0991573E0,-5.1716228E0,-3.982259E0,-1.8634535E0,-3.3011606E0,-2.735964E0,-2.0094402E0,-1.5781072E0,-9.7680306E-1,-2.2754171E-1,8.0646284E-2,8.2448673E-1,1.0796298E0,1.643542E0,2.8024118E0,3.304611E0,4.20798E0,3.6420975E0,1.4512372E0,5.6555133E0,1.909955E0,6.8676023E0,7.5601606E0,8.11396E0,9.61086E0,-5.144065E-1,1.0530327E1,2.145424E0,-2.1145694E0,-1.9996853E0,-2.3630264E0,-1.8107959E0,-2.1427925E0,-1.5276155E0,-1.2396547E0,-7.4574596E-1,-8.1982124E-1,-1.0930214E0,-4.15242E-1,-8.4974784E-1,-5.2520293E-1,-6.5075696E-1,-4.978925E-1,-4.0476352E-1,-1.8885203E-1,-1.2477026E0,-5.661035E-2,-1.034552E-1,8.329571E-2,-1.3342403E-1,4.019701E-1,9.700702E-2,-7.844484E-2,5.745525E-1,7.9623765E-1,8.5115594E-1,9.640062E-1,1.0303884E0,1.128123E0,1.5199695E0,8.54081E-1,1.3339151E0,1.6456441E0,1.7712501E0,2.271869E0,1.9523268E0,2.523422E0,2.1810095E0,2.459206E0,2.2514913E0,2.7441387E0,3.3402421E0,3.7594895E0,3.072573E0],"categories":[],"categories_nodes":[],"categories_segments":[],"categories_sizes":[],"default_left":[0,0,0,0,0,0,0,0,0,0,0,0,0,0,0,0,0,0,0,0,0,0,0,0,0,0,0,0,0,0,0,0,0,0,0,0,0,0,0,0,0,0,0,0,0,0,0,0,0,0,0,0,0,0,0,0,0,0,0,0,0,0,0,0,0,0,0,0,0,0,0,0,0,0,0,0,0,0,0,0,0,0,0,0,0,0,0,0,0,0,0,0,0,0,0,0,0,0,0,0,0,0,0,0,0,0,0,0,0],"id":13,"left_children":[1,3,5,7,9,11,13,15,17,19,21,23,25,27,29,31,33,35,37,39,41,43,45,47,49,51,53,55,57,59,61,-1,63,-1,65,-1,67,69,-1,71,73,75,77,79,81,83,85,-1,87,89,91,93,95,-1,97,-1,99,101,103,105,-1,107,-1,-1,-1,-1,-1,-1,-1,-1,-1,-1,-1,-1,-1,-1,-1,-1,-1,-1,-1,-1,-1,-1,-1,-1,-1,-1,-1,-1,-1,-1,-1,-1,-1,-1,-1,-1,-1,-1,-1,-1,-1,-1,-1,-1,-1,-1,-1],"loss_changes":[2.0711648E6,1.9695431E5,1.8526012E5,2.3723438E4,2.8320129E4,1.3985836E4,1.445025E4,2.2768125E3,4.0652812E3,3.7358672E3,3.9672551E3,2.061129E3,1.5887891E3,2.0420312E3,1.667625E3,7.001875E2,1.1070625E3,6.499375E2,1.3877109E3,4.991328E2,2.2528516E2,4.8763696E2,4.9131213E2,1.0180781E3,1.8285352E2,1.0056445E2,4.8325E2,7.1203125E1,1.8648438E2,3.7534625E4,3.0013125E3,0E0,1.4946875E2,0E0,9.789375E2,0E0,1.2064062E3,1.4962422E3,0E0,4.662754E2,5.8745703E2,9.830469E1,4.3354492E1,3.323939E3,5.5073395E0,1.3054056E2,7.7830884E2,0E0,1.2657085E3,3.2714844E-1,7.046875E0,3.329463E2,3.7298242E2,0E0,3.1960938E1,0E0,1.8217969E2,2.4040625E2,6.2109375E1,6.36525E3,0E0,1.2805938E3,0E0,0E0,0E0,0E0,0E0,0E0,0E0,0E0,0E0,0E0,0E0,0E0,0E0,0E0,0E0,0E0,0E0,0E0,0E0,0E0,0E0,0E0,0E0,0E0,0E0,0E0,0E0,0E0,0E0,0E0,0E0,0E0,0E0,0E0,0E0,0E0,0E0,0E0,0E0,0E0,0E0,0E0,0E0,0E0,0E0,0E0,0E0],"parents":[2147483647,0,0,1,1,2,2,3,3,4,4,5,5,6,6,7,7,8,8,9,9,10,10,11,11,12,12,13,13,14,14,15,15,16,16,17,17,18,18,19,19,20,20,21,21,22,22,23,23,24,24,25,25,26,26,27,27,28,28,29,29,30,30,32,32,34,34,36,36,37,37,39,39,40,40,41,41,42,42,43,43,44,44,45,45,46,46,48,48,49,49,50,50,51,51,52,52,54,54,56,56,57,57,58,58,59,59,61,61],"right_children":[2,4,6,8,10,12,14,16,18,20,22,24,26,28,30,32,34,36,38,40,42,44,46,48,50,52,54,56,58,60,62,-1,64,-1,66,-1,68,70,-1,72,74,76,78,80,82,84,86,-1,88,90,92,94,96,-1,98,-1,100,102,104,106,-1,108,-1,-1,-1,-1,-1,-1,-1,-1,-1,-1,-1,-1,-1,-1,-1,-1,-1,-1,-1,-1,-1,-1,-1,-1,-1,-1,-1,-1,-1,-1,-1,-1,-1,-1,-1,-1,-1,-1,-1,-1,-1,-1,-1,-1,-1,-1,-1],"split_conditions":[7.0349245E0,5.4235525E0,8.165745E0,4.289335E0,6.291044E0,7.6210394E0,8.888294E0,3.6886532E0,4.9154887E0,5.9267697E0,6.637E0,7.3037643E0,7.7939897E0,8.404992E0,1.1607644E1,2.802635E0,3.713595E0,4.3124866E0,5.404111E0,5.596333E0,6.10114E0,6.53571E0,6.749275E0,7.0648685E0,7.459289E0,7.7247443E0,7.975777E0,8.283947E0,8.560324E0,1.1430528E1,1.4944234E1,-2.5099561E0,3.21451E0,-1.2433243E0,3.7385392E0,-1.0991573E0,4.335069E0,5.36064E0,-1.8634535E0,5.49071E0,5.61995E0,5.99227E0,6.2390947E0,6.512429E0,6.612545E0,6.717868E0,6.885916E0,1.0796298E0,7.0931473E0,7.3339195E0,7.5525494E0,7.688645E0,7.760529E0,1.4512372E0,8.091043E0,1.909955E0,8.322342E0,8.44287E0,8.84826E0,1.046427E1,-5.144065E-1,1.1802289E1,2.145424E0,-2.1145694E0,-1.9996853E0,-2.3630264E0,-1.8107959E0,-2.1427925E0,-1.5276155E0,-1.2396547E0,-7.4574596E-1,-8.1982124E-1,-1.0930214E0,-4.15242E-1,-8.4974784E-1,-5.2520293E-1,-6.5075696E-1,-4.978925E-1,-4.0476352E-1,-1.8885203E-1,-1.2477026E0,-5.661035E-2,-1.034552E-1,8.329571E-2,-1.3342403E-1,4.019701E-1,9.700702E-2,-7.844484E-2,5.745525E-1,7.9623765E-1,8.5115594E-1,9.640062E-1,1.0303884E0,1.128123E0,1.5199695E0,8.54081E-1,1.3339151E0,1.6456441E0,1.7712501E0,2.271869E0,1.9523268E0,2.523422E0,2.1810095E0,2.459206E0,2.2514913E0,2.7441387E0,3.3402421E0,3.7594895E0,3.072573E0],"split_indices":[0,0,0,0,0,0,0,0,0,0,0,0,0,0,0,0,0,0,0,0,0,0,0,0,0,0,0,0,0,0,0,0,0,0,0,0,0,0,0,0,0,0,0,0,0,0,0,0,0,0,0,0,0,0,0,0,0,0,0,0,0,0,0,0,0,0,0,0,0,0,0,0,0,0,0,0,0,0,0,0,0,0,0,0,0,0,0,0,0,0,0,0,0,0,0,0,0,0,0,0,0,0,0,0,0,0,0,0,0],"split_type":[0,0,0,0,0,0,0,0,0,0,0,0,0,0,0,0,0,0,0,0,0,0,0,0,0,0,0,0,0,0,0,0,0,0,0,0,0,0,0,0,0,0,0,0,0,0,0,0,0,0,0,0,0,0,0,0,0,0,0,0,0,0,0,0,0,0,0,0,0,0,0,0,0,0,0,0,0,0,0,0,0,0,0,0,0,0,0,0,0,0,0,0,0,0,0,0,0,0,0,0,0,0,0,0,0,0,0,0,0],"sum_hessian":[7.8E4,4.9959E4,2.8041E4,2.9566E4,2.0393E4,1.0357E4,1.7684E4,1.4327E4,1.5239E4,1.1889E4,8.504E3,5.789E3,4.568E3,5.483E3,1.2201E4,7.009E3,7.318E3,8.231E3,7.008E3,6.978E3,4.911E3,4.231E3,4.273E3,2.743E3,3.046E3,1.517E3,3.051E3,1.83E3,3.653E3,9.456E3,2.745E3,3.06E2,6.703E3,3.05E2,7.013E3,3.08E2,7.923E3,6.714E3,2.94E2,2.447E3,4.531E3,2.469E3,2.442E3,3.009E3,1.222E3,1.259E3,3.014E3,2.99E2,2.444E3,1.523E3,1.523E3,9.15E2,6.02E2,1.53E3,1.521E3,9.19E2,9.11E2,1.22E3,2.433E3,9.154E3,3.02E2,2.44E3,3.05E2,1.832E3,4.871E3,3.13E2,6.7E3,3.04E2,7.619E3,6.101E3,6.13E2,9.23E2,1.524E3,3.03E2,4.228E3,9.47E2,1.522E3,1.796E3,6.46E2,2.714E3,2.95E2,9.2E2,3.02E2,9.16E2,3.43E2,1.485E3,1.529E3,3.05E2,2.139E3,3.04E2,1.219E3,9.1E2,6.13E2,6.05E2,3.1E2,3.05E2,2.97E2,9.17E2,6.04E2,3.01E2,6.1E2,3.03E2,9.17E2,2.129E3,3.04E2,7.023E3,2.131E3,3.02E2,2.138E3],"tree_param":{"num_deleted":"0","num_feature":"1","num_nodes":"109","size_leaf_vector":"1"}},{"base_weights":[1.6971927E-3,-2.7713366E0,4.6986933E0,-3.929168E0,-1.2257392E0,2.3511586E0,6.1946907E0,-4.5982037E0,-3.4135852E0,-1.916716E0,-3.233383E-1,1.6478958E0,3.3825269E0,5.1627674E0,6.5872207E0,-4.8549237E0,-4.3656697E0,-3.7236433E0,-2.990164E0,-2.2521555E0,-1.4822024E0,-9.011704E-1,1.13186985E-1,1.2380781E0,2.1393516E0,3.0377057E0,3.8974378E0,4.749883E0,1.6721112E0,6.4429364E0,7.113567E0,-4.739743E0,-5.8324084E0,-4.1677527E0,-4.4265776E0,-3.873122E0,-3.4646223E0,-2.911434E0,-1.3894885E0,-1.4484495E0,-2.3800483E0,-1.6908736E0,-1.3015562E0,-9.8484176E-1,-6.1090946E-1,7.5468683E-1,-4.200686E-2,1.3501515E0,6.998882E-3,1.9627559E0,2.3145435E0,2.71205E0,3.2971325E0,1.1125909E0,1.2253332E0,4.552232E0,5.073189E0,6.6795893E0,-3.605945E-1,7.373972E0,1.5039115E0,-1.463647E0,-7.4482787E-1,-2.0786154E0,-1.4050779E0,-1.3442295E0,-8.715458E-1,-1.6563752E0,-1.3051385E0,-1.1378357E0,-1.3638715E0,-1.0046183E0,-1.3763506E0,-9.057614E-1,-2.0868655E-1,-7.146138E-1,1.3902949E-1,-1.236974E0,-6.5285647E-1,-4.204557E-1,-5.3649545E-1,-1.368738E-1,-4.2557168E-1,-2.1052995E-1,-3.1494904E-1,-6.568763E-2,-2.346571E-1,-8.746629E-1,4.309035E-2,3.594883E-1,8.5049313E-1,5.5814147E-1,5.9601545E-1,6.45835E-1,7.058276E-1,8.8452804E-1,5.986805E-1,9.551138E-1,1.0108137E0,1.4017627E0,1.2162108E0,1.6425824E0,1.2769264E0,1.9669216E0,3.1241872E0,2.5000203E0,2.115775E0],"categories":[],"categories_nodes":[],"categories_segments":[],"categories_sizes":[],"default_left":[0,0,0,0,0,0,0,0,0,0,0,0,0,0,0,0,0,0,0,0,0,0,0,0,0,0,0,0,0,0,0,0,0,0,0,0,0,0,0,0,0,0,0,0,0,0,0,0,0,0,0,0,0,0,0,0,0,0,0,0,0,0,0,0,0,0,0,0,0,0,0,0,0,0,0,0,0,0,0,0,0,0,0,0,0,0,0,0,0,0,0,0,0,0,0,0,0,0,0,0,0,0,0,0,0,0,0],"id":14,"left_children":[1,3,5,7,9,11,13,15,17,19,21,23,25,27,29,31,33,35,37,39,41,43,45,47,49,51,53,55,-1,57,59,61,63,65,67,69,71,73,-1,75,77,79,81,83,85,-1,87,89,-1,91,93,95,97,-1,-1,99,101,103,-1,105,-1,-1,-1,-1,-1,-1,-1,-1,-1,-1,-1,-1,-1,-1,-1,-1,-1,-1,-1,-1,-1,-1,-1,-1,-1,-1,-1,-1,-1,-1,-1,-1,-1,-1,-1,-1,-1,-1,-1,-1,-1,-1,-1,-1,-1,-1,-1],"loss_changes":[1.01597044E6,8.776503E4,1.0167619E5,9.656531E3,1.3098047E4,8.1702617E3,7.1295E3,7.0715625E2,2.0684219E3,1.7306836E3,2.2982454E3,1.3475859E3,7.9939844E2,8.011719E2,9.26875E2,6.242344E2,5.884375E1,3.4046094E2,8.525E2,6.8647266E2,1.9328809E2,9.462573E1,1.9355349E3,4.9797314E2,8.9725586E1,2.2262695E2,4.9429688E1,1.3282812E2,0E0,1.8213875E4,1.4650625E3,1.6154531E3,7.307793E2,5.9007227E2,3.8317188E2,2.956875E2,4.212422E2,1.5255E3,0E0,1.6503751E3,2.048254E3,6.524902E1,2.7473145E2,5.5225586E1,5.890631E1,0E0,2.60204E3,7.5174023E2,0E0,3.857422E-2,4.3554688E0,2.0089453E2,1.7363281E0,0E0,0E0,7.240234E1,2.7784766E2,4.4219062E3,0E0,6.939219E2,0E0,0E0,0E0,0E0,0E0,0E0,0E0,0E0,0E0,0E0,0E0,0E0,0E0,0E0,0E0,0E0,0E0,0E0,0E0,0E0,0E0,0E0,0E0,0E0,0E0,0E0,0E0,0E0,0E0,0E0,0E0,0E0,0E0,0E0,0E0,0E0,0E0,0E0,0E0,0E0,0E0,0E0,0E0,0E0,0E0,0E0,0E0],"parents":[2147483647,0,0,1,1,2,2,3,3,4,4,5,5,6,6,7,7,8,8,9,9,10,10,11,11,12,12,13,13,14,14,15,15,16,16,17,17,18,18,19,19,20,20,21,21,22,22,23,23,24,24,25,25,26,26,27,27,29,29,30,30,31,31,32,32,33,33,34,34,35,35,36,36,37,37,39,39,40,40,41,41,42,42,43,43,44,44,46,46,47,47,49,49,50,50,51,51,52,52,55,55,56,56,57,57,59,59],"right_children":[2,4,6,8,10,12,14,16,18,20,22,24,26,28,30,32,34,36,38,40,42,44,46,48,50,52,54,56,-1,58,60,62,64,66,68,70,72,74,-1,76,78,80,82,84,86,-1,88,90,-1,92,94,96,98,-1,-1,100,102,104,-1,106,-1,-1,-1,-1,-1,-1,-1,-1,-1,-1,-1,-1,-1,-1,-1,-1,-1,-1,-1,-1,-1,-1,-1,-1,-1,-1,-1,-1,-1,-1,-1,-1,-1,-1,-1,-1,-1,-1,-1,-1,-1,-1,-1,-1,-1,-1,-1],"split_conditions":[6.94333E0,5.31665E0,8.165745E0,4.1187053E0,6.1701097E0,7.6210394E0,8.803985E0,3.5829122E0,4.82758E0,5.79462E0,6.486408E0,7.3037643E0,7.9392796E0,8.481253E0,1.1607644E1,3.5305624E0,3.713595E0,4.5705748E0,5.2956E0,5.380675E0,5.9687567E0,6.4155293E0,6.512429E0,7.2722297E0,7.459289E0,7.760529E0,8.0517E0,8.362123E0,1.6721112E0,1.1430528E1,1.4944234E1,3.5036664E0,3.5565948E0,3.6886532E0,3.7385392E0,4.521049E0,4.8057365E0,5.2740297E0,-1.3894885E0,5.36064E0,5.4235525E0,5.840184E0,5.99227E0,6.2141647E0,6.4348683E0,7.5468683E-1,6.53571E0,7.2416925E0,6.998882E-3,7.3339195E0,7.4909096E0,7.7247443E0,7.8329577E0,1.1125909E0,1.2253332E0,8.322342E0,8.44287E0,1.126417E1,-3.605945E-1,1.2028515E1,1.5039115E0,-1.463647E0,-7.4482787E-1,-2.0786154E0,-1.4050779E0,-1.3442295E0,-8.715458E-1,-1.6563752E0,-1.3051385E0,-1.1378357E0,-1.3638715E0,-1.0046183E0,-1.3763506E0,-9.057614E-1,-2.0868655E-1,-7.146138E-1,1.3902949E-1,-1.236974E0,-6.5285647E-1,-4.204557E-1,-5.3649545E-1,-1.368738E-1,-4.2557168E-1,-2.1052995E-1,-3.1494904E-1,-6.568763E-2,-2.346571E-1,-8.746629E-1,4.309035E-2,3.594883E-1,8.5049313E-1,5.5814147E-1,5.9601545E-1,6.45835E-1,7.058276E-1,8.8452804E-1,5.986805E-1,9.551138E-1,1.0108137E0,1.4017627E0,1.2162108E0,1.6425824E0,1.2769264E0,1.9669216E0,3.1241872E0,2.5000203E0,2.115775E0],"split_indices":[0,0,0,0,0,0,0,0,0,0,0,0,0,0,0,0,0,0,0,0,0,0,0,0,0,0,0,0,0,0,0,0,0,0,0,0,0,0,0,0,0,0,0,0,0,0,0,0,0,0,0,0,0,0,0,0,0,0,0,0,0,0,0,0,0,0,0,0,0,0,0,0,0,0,0,0,0,0,0,0,0,0,0,0,0,0,0,0,0,0,0,0,0,0,0,0,0,0,0,0,0,0,0,0,0,0,0],"split_type":[0,0,0,0,0,0,0,0,0,0,0,0,0,0,0,0,0,0,0,0,0,0,0,0,0,0,0,0,0,0,0,0,0,0,0,0,0,0,0,0,0,0,0,0,0,0,0,0,0,0,0,0,0,0,0,0,0,0,0,0,0,0,0,0,0,0,0,0,0,0,0,0,0,0,0,0,0,0,0,0,0,0,0,0,0,0,0,0,0,0,0,0,0,0,0,0,0,0,0,0,0,0,0,0,0,0,0],"sum_hessian":[7.8E4,4.9045E4,2.8955E4,2.8039E4,2.1006E4,1.1271E4,1.7684E4,1.22E4,1.5839E4,1.1896E4,9.11E3,6.703E3,4.568E3,4.877E3,1.2807E4,5.789E3,6.411E3,9.139E3,6.7E3,6.711E3,5.185E3,3.92E3,5.19E3,3.657E3,3.046E3,2.74E3,1.828E3,2.439E3,2.438E3,1.0062E4,2.745E3,5.184E3,6.05E2,1.525E3,4.886E3,5.786E3,3.353E3,6.396E3,3.04E2,9.23E2,5.788E3,2.402E3,2.783E3,3.041E3,8.79E2,3.14E2,4.876E3,3.348E3,3.09E2,1.523E3,1.523E3,1.22E3,1.52E3,9.2E2,9.08E2,1.523E3,9.16E2,9.76E3,3.02E2,2.44E3,3.05E2,4.882E3,3.02E2,3.07E2,2.98E2,1.22E3,3.05E2,3.13E2,4.573E3,5.175E3,6.11E2,3.043E3,3.1E2,6.099E3,2.97E2,6.2E2,3.03E2,6.04E2,5.184E3,6.09E2,1.793E3,3.39E2,2.444E3,5.7E2,2.471E3,2.68E2,6.11E2,2.95E2,4.581E3,3.039E3,3.09E2,3.04E2,1.219E3,3.02E2,1.221E3,9.15E2,3.05E2,6.09E2,9.11E2,1.22E3,3.03E2,6.1E2,3.06E2,9.451E3,3.09E2,6.06E2,1.834E3],"tree_param":{"num_deleted":"0","num_feature":"1","num_nodes":"107","size_leaf_vector":"1"}},{"base_weights":[1.2472775E-3,-1.9573312E0,3.262823E0,-2.6662636E0,-7.447202E-1,1.6566383E0,4.3616476E0,-3.0657475E0,-2.125919E0,-1.0801619E0,-3.2767337E-2,1.1840622E0,2.4990773E0,3.696513E0,4.6434355E0,-3.283794E0,-2.7771835E0,-2.09103E0,-1.1394758E0,-1.3259946E0,-7.4933255E-1,1.2341728E-1,-8.4507954E-1,8.5552955E-1,1.540698E0,2.2631211E0,2.812707E0,3.2794485E0,3.8693352E0,4.43674E0,4.922869E0,-3.9560812E0,-3.2163754E0,-2.7317476E0,-1.1572055E0,-2.1411176E0,-3.4961514E-2,-1.2877551E0,-6.784535E-1,-8.292474E-1,-6.36708E-1,-1.0047971E-1,1.1712909E0,9.2639464E-1,4.899962E-3,1.3977137E0,1.6827608E0,8.009266E-1,2.2027712E0,2.6929538E0,8.7901056E-1,3.105811E0,3.3923724E0,3.9199772E0,9.901255E-1,4.680753E0,2.8247805E0,6.042248E0,4.577507E0,-1.321758E0,-1.1166244E0,-9.5676893E-1,-1.0764151E0,-8.3617204E-1,-4.329997E-1,-7.014076E-1,-5.738168E-1,-4.0169623E-1,-9.5924035E-2,-2.285898E-1,-4.2941985E-1,-1.5665391E-1,-2.3842792E-1,-4.2662898E-4,-5.006662E-1,2.4838465E-1,5.961769E-1,4.0230244E-1,4.358118E-1,4.7719666E-1,5.1821864E-1,4.196776E-1,7.008381E-1,8.55993E-1,7.825541E-1,9.9707717E-1,8.6572653E-1,1.1734431E0,9.3907255E-1,1.154367E0,1.3896587E0,1.3528357E0,2.4000762E0,7.3244965E-1,1.0780158E0,1.9423717E0,1.6810747E0,6.705733E-1,1.4318815E0],"categories":[],"categories_nodes":[],"categories_segments":[],"categories_sizes":[],"default_left":[0,0,0,0,0,0,0,0,0,0,0,0,0,0,0,0,0,0,0,0,0,0,0,0,0,0,0,0,0,0,0,0,0,0,0,0,0,0,0,0,0,0,0,0,0,0,0,0,0,0,0,0,0,0,0,0,0,0,0,0,0,0,0,0,0,0,0,0,0,0,0,0,0,0,0,0,0,0,0,0,0,0,0,0,0,0,0,0,0,0,0,0,0,0,0,0,0,0,0],"id":15,"left_children":[1,3,5,7,9,11,13,15,17,19,21,23,25,27,29,31,33,35,-1,37,39,41,-1,43,45,47,49,51,53,55,57,59,61,63,-1,65,-1,67,-1,69,71,73,-1,75,-1,77,79,-1,81,83,-1,85,87,89,-1,91,93,95,97,-1,-1,-1,-1,-1,-1,-1,-1,-1,-1,-1,-1,-1,-1,-1,-1,-1,-1,-1,-1,-1,-1,-1,-1,-1,-1,-1,-1,-1,-1,-1,-1,-1,-1,-1,-1,-1,-1,-1,-1],"loss_changes":[4.982808E5,4.1894375E4,5.1644812E4,6.6322188E3,4.2944014E3,4.7306465E3,3.23975E3,1.1033125E3,7.549961E2,9.930879E2,2.505047E3,8.91374E2,3.0977344E2,3.6039062E2,6.8290625E2,4.4346875E2,3.632461E2,1.2667344E3,0E0,2.4789746E2,4.6391113E1,4.618207E3,0E0,2.3596045E2,7.183008E1,5.407129E1,1.7822266E1,1.9327148E1,9.233984E1,2.7495938E3,1.9745E3,7.969238E1,8.090625E1,5.187656E2,0E0,5.5741406E2,0E0,3.3373145E2,0E0,1.22313965E2,3.8828857E1,8.00271E2,0E0,3.8049146E2,0E0,3.7460938E0,4.7626953E0,0E0,2.2538477E2,4.9873047E0,0E0,1.9738281E1,1.1185449E2,1.5417188E2,0E0,3.4320312E3,2.6401953E2,1.9471094E2,1.8029453E3,0E0,0E0,0E0,0E0,0E0,0E0,0E0,0E0,0E0,0E0,0E0,0E0,0E0,0E0,0E0,0E0,0E0,0E0,0E0,0E0,0E0,0E0,0E0,0E0,0E0,0E0,0E0,0E0,0E0,0E0,0E0,0E0,0E0,0E0,0E0,0E0,0E0,0E0,0E0,0E0],"parents":[2147483647,0,0,1,1,2,2,3,3,4,4,5,5,6,6,7,7,8,8,9,9,10,10,11,11,12,12,13,13,14,14,15,15,16,16,17,17,19,19,20,20,21,21,23,23,24,24,25,25,26,26,27,27,28,28,29,29,30,30,31,31,32,32,33,33,35,35,37,37,39,39,40,40,41,41,43,43,45,45,46,46,48,48,49,49,51,51,52,52,53,53,55,55,56,56,57,57,58,58],"right_children":[2,4,6,8,10,12,14,16,18,20,22,24,26,28,30,32,34,36,-1,38,40,42,-1,44,46,48,50,52,54,56,58,60,62,64,-1,66,-1,68,-1,70,72,74,-1,76,-1,78,80,-1,82,84,-1,86,88,90,-1,92,94,96,98,-1,-1,-1,-1,-1,-1,-1,-1,-1,-1,-1,-1,-1,-1,-1,-1,-1,-1,-1,-1,-1,-1,-1,-1,-1,-1,-1,-1,-1,-1,-1,-1,-1,-1,-1,-1,-1,-1,-1,-1],"split_conditions":[6.915531E0,5.506841E0,8.206882E0,4.5443277E0,6.4155293E0,7.688645E0,8.888294E0,3.9451199E0,5.49071E0,6.011395E0,6.885916E0,7.3037643E0,7.975777E0,8.404992E0,1.046427E1,3.010495E0,4.521049E0,5.4682446E0,-1.1394758E0,5.99227E0,6.2390947E0,6.8601446E0,-8.4507954E-1,7.2722297E0,7.4909096E0,7.7247443E0,8.091043E0,8.283947E0,8.84826E0,1.0147855E1,1.0959463E1,2.802635E0,3.894019E0,4.49751E0,-1.1572055E0,5.04916E0,-3.4961514E-2,5.9687567E0,-6.784535E-1,6.2141647E0,6.343787E0,6.83285E0,1.1712909E0,7.2416925E0,4.899962E-3,7.3928E0,7.5525494E0,8.009266E-1,7.760529E0,8.0122385E0,8.7901056E-1,8.245094E0,8.322342E0,8.803985E0,9.901255E-1,1.0061825E1,1.0356947E1,1.0687315E1,1.111011E1,-1.321758E0,-1.1166244E0,-9.5676893E-1,-1.0764151E0,-8.3617204E-1,-4.329997E-1,-7.014076E-1,-5.738168E-1,-4.0169623E-1,-9.5924035E-2,-2.285898E-1,-4.2941985E-1,-1.5665391E-1,-2.3842792E-1,-4.2662898E-4,-5.006662E-1,2.4838465E-1,5.961769E-1,4.0230244E-1,4.358118E-1,4.7719666E-1,5.1821864E-1,4.196776E-1,7.008381E-1,8.55993E-1,7.825541E-1,9.9707717E-1,8.6572653E-1,1.1734431E0,9.3907255E-1,1.154367E0,1.3896587E0,1.3528357E0,2.4000762E0,7.3244965E-1,1.0780158E0,1.9423717E0,1.6810747E0,6.705733E-1,1.4318815E0],"split_indices":[0,0,0,0,0,0,0,0,0,0,0,0,0,0,0,0,0,0,0,0,0,0,0,0,0,0,0,0,0,0,0,0,0,0,0,0,0,0,0,0,0,0,0,0,0,0,0,0,0,0,0,0,0,0,0,0,0,0,0,0,0,0,0,0,0,0,0,0,0,0,0,0,0,0,0,0,0,0,0,0,0,0,0,0,0,0,0,0,0,0,0,0,0,0,0,0,0,0,0],"split_type":[0,0,0,0,0,0,0,0,0,0,0,0,0,0,0,0,0,0,0,0,0,0,0,0,0,0,0,0,0,0,0,0,0,0,0,0,0,0,0,0,0,0,0,0,0,0,0,0,0,0,0,0,0,0,0,0,0,0,0,0,0,0,0,0,0,0,0,0,0,0,0,0,0,0,0,0,0,0,0,0,0,0,0,0,0,0,0,0,0,0,0,0,0,0,0,0,0,0,0],"sum_hessian":[7.8E4,4.8735E4,2.9265E4,3.0754E4,1.7981E4,1.1889E4,1.7376E4,1.7679E4,1.3075E4,1.2222E4,5.759E3,7.618E3,4.271E3,5.175E3,1.2201E4,1.0064E4,7.615E3,1.281E4,2.65E2,7.01E3,5.212E3,5.454E3,3.05E2,3.967E3,3.651E3,2.442E3,1.829E3,1.522E3,3.653E3,7.023E3,5.178E3,9.12E2,9.152E3,7.311E3,3.04E2,1.2493E4,3.17E2,6.737E3,2.73E2,3.045E3,2.167E3,5.15E3,3.04E2,3.658E3,3.09E2,1.825E3,1.826E3,3.1E2,2.132E3,9.17E2,9.12E2,6.11E2,9.11E2,3.349E3,3.04E2,6.098E3,9.25E2,1.217E3,3.961E3,3.06E2,6.06E2,8.538E3,6.14E2,7.008E3,3.03E2,6.704E3,5.789E3,6.398E3,3.39E2,2.741E3,3.04E2,1.259E3,9.08E2,4.845E3,3.05E2,3.349E3,3.09E2,9.11E2,9.14E2,6.08E2,1.218E3,3.05E2,1.827E3,3.05E2,6.12E2,3E2,3.11E2,3.01E2,6.1E2,3.047E3,3.02E2,5.801E3,2.97E2,6.2E2,3.05E2,6.06E2,6.11E2,3.06E2,3.655E3],"tree_param":{"num_deleted":"0","num_feature":"1","num_nodes":"99","size_leaf_vector":"1"}},{"base_weights":[1.0582723E-3,-1.3258039E0,2.3650136E0,-1.8186586E0,-3.7362385E-1,1.2418963E0,3.0542467E0,-2.1087515E0,-1.3800942E0,-6.546741E-1,1.2993392E-1,9.0200907E-1,1.750402E0,2.703888E0,3.3273363E0,-2.2921326E0,-1.8944259E0,-1.518686E0,-1.2046411E0,-8.354255E-1,-5.1078445E-1,5.291234E-1,4.1040767E-2,5.75049E-1,8.519191E-1,1.558641E0,1.9412543E0,2.3489091E0,2.841349E0,1.7690022E0,3.242998E0,-2.771927E0,-2.2470152E0,-1.8631451E0,-8.411367E-1,-1.3734813E0,-1.6901656E0,-8.720513E-1,-1.3583633E0,-7.902994E-1,-4.756563E-1,-6.0430545E-1,-4.483912E-1,-6.130315E-1,1.5329781E-1,-2.3676974E-1,9.3849146E-1,5.614282E-1,1.5045143E0,1.8185195E0,6.0976267E-1,2.4343703E0,5.4988337E-1,2.966132E0,2.405344E0,4.3374744E-1,3.3027587E0,-9.265222E-1,-7.821888E-1,-7.098094E-1,-6.5258414E-1,-5.7108104E-1,-3.9511606E-1,-4.6747017E-1,2.4828447E-1,-1.1535755E0,-4.4265485E-1,-3.6688092E-1,2.690356E-1,-6.946347E-1,-3.555953E-1,-2.506744E-1,-6.722451E-2,-1.253896E-1,-2.1468447E-1,8.475673E-3,-1.4762013E-1,-5.40518E-2,9.59019E-2,2.0947316E-1,3.2370445E-1,2.941857E-1,4.826773E-1,5.652235E-1,5.0477314E-1,6.8946505E-1,9.3254215E-1,8.3416563E-1,1.2242528E0,3.4426814E-1,8.533744E-1,1.6007522E0,9.6996665E-1],"categories":[],"categories_nodes":[],"categories_segments":[],"categories_sizes":[],"default_left":[0,0,0,0,0,0,0,0,0,0,0,0,0,0,0,0,0,0,0,0,0,0,0,0,0,0,0,0,0,0,0,0,0,0,0,0,0,0,0,0,0,0,0,0,0,0,0,0,0,0,0,0,0,0,0,0,0,0,0,0,0,0,0,0,0,0,0,0,0,0,0,0,0,0,0,0,0,0,0,0,0,0,0,0,0,0,0,0,0,0,0,0,0],"id":16,"left_children":[1,3,5,7,9,11,13,15,17,19,21,23,25,27,29,31,33,35,37,39,41,-1,43,-1,45,47,49,51,53,-1,55,57,59,61,-1,63,65,67,69,71,-1,73,75,-1,77,-1,79,-1,81,83,-1,85,-1,87,89,-1,91,-1,-1,-1,-1,-1,-1,-1,-1,-1,-1,-1,-1,-1,-1,-1,-1,-1,-1,-1,-1,-1,-1,-1,-1,-1,-1,-1,-1,-1,-1,-1,-1,-1,-1,-1,-1],"loss_changes":[2.446644E5,2.344486E4,2.1703234E4,4.1853203E3,2.4118135E3,1.841875E3,1.653625E3,7.7434375E2,3.1693555E2,2.8402588E2,8.865849E2,3.2343994E2,1.5332227E2,3.65E2,2.0960312E3,2.2478516E2,2.5479688E2,1.7994336E2,2.948369E2,1.6277856E2,3.5276123E1,0E0,1.3553926E3,0E0,